198 100
the -0.045158803 0.021316316 0.046458516 0.012040198 0.012435425 -0.029379642 0.012763057 0.015415136 -0.022151424 -0.013627946 0.0415946 0.047746267 0.030108009 0.021355841 0.019519914 0.01672392 -0.023214174 0.037916016 0.03170606 0.017607775 0.019037534 -0.026430273 0.020455506 0.01834463 -0.020200456 0.011876345 -0.03798165 -0.010288417 0.042219345 -0.0036390051 0.01380967 0.019018162 0.039284434 0.028356615 -0.035755087 -0.03797568 0.0001624003 -0.021937205 -0.004145205 -0.027418792 0.0361532 0.0006216392 0.009010971 -0.014129065 0.03241953 0.010131061 -0.041521 -0.049657907 0.034718696 0.004885651 -0.03201418 0.02152193 -0.007261552 -0.043331396 0.03856403 0.00078002363 -0.032278515 -0.023672307 0.035120692 0.0069445 0.015837882 -0.041122653 0.031168368 0.013377074 -0.03678626 -0.012508355 -0.019305874 0.019793097 0.027975116 0.0013571978 -0.004561018 -0.041794337 -0.030839337 0.030556474 0.03711376 -0.02660569 -0.0017179139 0.035366807 -0.027254224 -0.037031364 -0.016077377 -0.014839482 -0.040820457 0.042545926 0.04284701 0.012973394 0.029404532 0.02284867 -0.04696491 -0.0005923286 -0.033196405 0.033056084 -0.018213581 -0.03824377 -0.022849906 0.04265975 -0.0221303 -0.04301647 -0.024667908 0.041453626
of -0.02073579 -0.036371898 -0.009772442 -0.020779872 0.0041886084 0.042668056 0.033980098 -0.04610442 -0.025968743 -0.00823779 0.01913495 -0.022917975 0.010536432 0.018392053 0.037521783 0.0030218586 -0.04837927 -0.030863225 -0.037728477 0.026514921 0.0425252 0.046459783 0.008340597 -0.00768131 0.03432 -0.0065450296 -0.02169168 0.01426791 -0.038230825 0.02405243 -0.0035466775 0.040669885 0.028387014 0.036824945 -0.00038752705 -0.015017927 -0.035453808 -0.045142233 0.0074254163 -0.043162774 -0.044719946 -0.047474947 0.030267563 -0.033267274 0.012143303 -0.04890872 -0.0074665323 0.0037198178 -0.0009768121 -0.0043645017 -0.034642495 0.029624354 -0.0020962842 0.049015258 0.014390457 -0.0021408089 -0.033806875 0.002878856 -0.03385947 -0.02325741 -0.028896594 -0.005936373 -0.048745334 -0.04922829 -0.034207724 -0.048048653 0.0005577579 -0.048136473 0.0032151118 -0.04085977 -0.035984956 -0.012125324 0.014641788 0.010435581 -0.022434235 0.022302065 -0.045541108 -0.00035153702 0.038929645 -0.015228368 0.023191717 -0.015451275 -0.023138583 0.024159957 -0.0062391274 0.038397383 0.027418885 0.04306631 0.010036111 -0.014027178 0.021878984 -0.015750218 -0.033685137 -0.017427254 -0.025946712 0.034917448 0.04421557 0.045798745 0.044925097 0.02446555
influenza -0.03127195 -0.047805466 0.014819492 4.483387e-05 0.039743695 0.038213227 0.029387388 -0.033129573 0.046216574 0.011270903 -0.00760727 -0.038000584 0.0038419254 0.019554686 -0.00025524944 -0.015043758 0.008639239 0.016717765 0.032661702 0.044486653 -0.03382503 0.005380798 0.04855636 -0.02701198 -0.011874735 0.01342411 -0.049268793 -0.027130688 -0.003143359 -0.026346171 -0.018500198 -0.04393054 0.020420026 0.02509192 -0.041002464 0.009730469 -0.038561545 -0.020400226 -0.02601831 0.0036903843 -0.004049085 -0.044241596 -0.024434913 0.01747663 0.027750317 -0.0013797767 -0.04871055 -0.013895642 -0.037662767 0.03518993 0.033501174 -0.043243002 -0.004937697 0.0039254427 -0.0048599616 0.013339255 0.015069436 0.011693478 0.009422552 -0.03951025 0.013343874 -0.018620301 0.020145584 -0.00636176 0.024150286 -0.01738695 0.0142010115 -0.010031104 -0.047490515 0.011500694 -0.047313284 0.0064410344 -0.025969613 -0.028042138 -0.02354951 -0.020692993 -0.0033443347 -0.038809538 0.005088281 0.008596562 0.010506559 0.04633342 0.040264975 -0.01556474 0.038854253 0.025423776 0.012747075 0.031795096 -0.0011611208 -0.0128218755 0.006486155 -0.026066924 0.040642444 -0.038981795 0.047393892 -0.04007574 0.014109861 0.019070711 -0.04987538 0.00917555
covid 0.033651974 -0.027518464 0.031940613 -0.030129839 0.0009765849 -0.03922547 0.03515831 -0.02948798 0.021792237 -0.0069103613 0.0009445064 -0.02586397 0.028205875 -0.0405568 -0.03401629 0.015043322 0.0055331364 -0.04586047 0.028524589 0.037226524 -0.041248836 0.0029396638 0.049618874 -0.014047135 -0.037361942 -0.0054876097 0.03980091 0.042293694 0.047457207 0.00782565 -0.0048311725 -0.0013610236 0.047917966 0.04812062 -0.021174705 -0.03482635 -0.0153640285 -0.035744656 -0.018276442 -0.032174386 0.038773242 0.030738723 0.03380735 -0.016816426 -0.048601795 -0.045976292 0.026081357 0.024407174 0.039294805 -0.043582417 0.026858877 -0.024797488 0.008114018 0.019364383 0.0042531267 0.016950812 -0.04514556 0.025429223 0.011020698 -0.037070595 -0.03075694 0.030585457 0.022030402 0.0364046 -0.038655054 0.0007075779 0.027908217 0.0024564862 0.04153781 -0.035069276 0.026038278 0.041580055 -0.010744166 -0.0021768808 0.041611943 0.014760938 0.049762253 0.01646221 0.043517735 -0.04998858 0.011533309 -0.02105154 0.049687896 -0.041202616 0.0037742965 0.026465666 -0.016379036 0.04481257 -0.038500894 -0.02966006 0.02317841 -0.039335262 -0.0395151 -0.023775518 -0.02142532 -0.032788232 -0.042451203 -5.333498e-05 -0.008197568 -0.027434016
19 -0.0334795 0.013546195 0.027196113 0.046319578 0.034352694 -0.0011759885 0.013786677 -0.026518298 -0.029001022 0.0034880415 0.034975458 0.039074566 -0.040360034 0.00074517727 -0.01644329 0.026410963 -0.048435356 -0.013629019 0.007548474 -0.035808124 -0.007985413 0.036804784 0.0018938556 0.04954337 0.027699362 -0.0007040128 -0.0021343715 -0.022903716 0.018001508 -0.043756176 -0.020066535 -0.03546487 0.025969576 0.018552255 -0.0069907904 0.024778489 0.042107824 -0.03353237 -0.022955393 -0.049700465 0.00436604 0.039556373 0.0215181 -0.012360681 -0.037102092 0.021865252 0.04088911 -0.01804657 0.035867285 0.023910452 -0.0389284 -0.030165864 0.048561964 -0.0034103394 0.021072317 0.03724594 0.03424896 0.04354984 -0.0325524 -0.006509125 -0.0042742863 0.026658189 0.013823818 -0.009025086 0.0070089325 -0.029797947 0.03361777 0.032862235 -0.009074949 -0.04923853 0.00033019856 0.0022557005 0.030765023 -0.009736419 0.011072684 0.048776876 -0.032997444 0.010087766 -0.030563427 0.014605913 0.01974411 -0.0213552 0.042455103 -0.00752585 0.004347671 -0.008448221 0.044628922 0.038613092 -0.041418515 -0.0036477223 0.0042488463 -0.001496017 0.042129766 -0.030363798 -0.009344637 0.033381406 -0.036755633 0.0045808665 0.008004129 -0.032500878
virus 0.0001885891 -0.04054178 0.033456873 0.041803982 -0.0025851354 0.0070161447 -0.037148975 0.040322755 0.04717088 -0.023849607 -0.011762202 -0.0035665743 0.02531084 -0.0034736618 -0.021521045 0.016081598 -0.005042564 -0.02273283 -0.0077777877 -0.00039588287 -0.03848802 -0.04407995 -0.011412073 0.039075676 0.0023785606 0.015551057 0.04377712 0.015145931 0.045846734 -0.046719063 -0.032224916 -0.024375785 0.04392917 0.038061883 0.010528851 -0.029178394 -0.0006461367 0.04775646 -0.010016441 0.0073732845 -0.012896575 0.038879383 0.028380502 -0.035417687 -0.020326197 -0.0013370514 -0.04092164 -0.018826568 0.028259207 -0.007527031 -0.045811772 -0.006113887 -0.029864848 -0.009548366 -0.034698702 0.019514207 -0.014511846 0.01690935 0.034343515 -0.045605183 0.042603385 0.010419715 0.022665624 -0.0064637773 0.034422014 -0.044450738 0.026963402 0.01998068 -0.005981244 0.038168196 0.011589397 0.0029120445 0.0032148361 0.0034998432 0.041758645 -0.023848176 0.021041993 -0.02356205 0.042231653 -0.011041559 0.03517664 0.043428827 0.009493433 0.045339253 0.03154329 0.047124755 0.0443953 0.037863243 0.03336436 -0.016263284 0.01422279 0.015602659 -0.016996525 -0.02641368 0.00700859 -0.0125428215 -0.031490818 -0.024540221 -0.0018702038 0.043688323
for -0.005363129 0.030421566 -0.029145932 0.03766339 -0.017701387 0.04235811 -0.0122003555 -0.013290264 0.0072076544 -0.024289299 -0.010297727 0.01647253 0.0015383735 0.03054991 0.03376103 -0.006988596 -0.035523035 0.015463065 -0.024185693 0.027647201 -0.032756284 0.016600046 -0.0462034 -0.020671202 -0.008401275 -0.0023704767 -0.026748037 0.038112808 0.008031536 0.04743464 0.029926885 -0.010365628 -0.03977858 -0.022534966 0.024526332 0.020243313 0.034494925 -0.001186274 0.0069876537 0.008389868 -0.024085332 0.030596483 0.027421448 -0.017751265 -0.008293353 0.015846197 0.0461745 -0.027025497 0.019249942 0.013852309 0.017338205 -0.0017974265 -0.038031507 0.036338698 -0.025673974 0.04367132 -0.022763431 0.014258627 -0.03602005 -0.005144976 -0.031997025 0.026299927 0.016468499 -0.016593732 -0.013069116 0.0024589412 0.01391894 0.04454079 0.0036210194 -0.009843864 0.04772753 -0.007717263 -0.017193042 -0.009688817 -0.0064618215 -0.03525009 -0.0004895218 -0.03332623 0.005037129 0.0083682425 0.029903237 -0.0054755323 0.046546113 -0.04357774 -0.03977232 0.04712877 0.009362232 -0.0481791 -0.042030264 0.007788431 0.017296184 -0.033374894 0.049940262 -0.02154162 -0.04117372 0.03775494 0.01833615 0.01705337 0.013663914 0.030892517
transmission -0.04063493 0.02125958 0.007883929 0.01039077 0.021633875 0.041992877 0.032661032 0.033095006 0.03947201 0.04037526 -0.031962372 -0.01726954 -0.040674902 0.021139745 -0.009974919 -0.048438814 -0.011325013 0.01154853 0.012305509 0.0028186664 0.04312439 -0.035533417 -0.041964985 0.02531543 0.016600762 0.030435529 0.015859868 0.018125046 -0.0072177052 -0.030467153 0.007821955 0.027396034 0.03555994 0.036128018 0.019299481 -0.045881845 0.04533427 0.0046551935 -0.012237035 0.023189116 0.030405488 -0.021999383 0.020362828 0.028262947 0.026285712 0.004259456 -0.045480885 0.029792968 -0.031693876 0.043015067 -0.00031263754 -0.028938377 0.002082657 0.027482513 -0.042723276 -0.0036216862 -0.018818188 -0.038921274 -0.009840678 -0.04318122 -0.0034498796 -0.0099961385 0.006649576 -0.01989386 -0.044339098 0.034151804 0.010169089 0.012593534 0.043292653 -0.024573732 -0.020424545 0.048461888 -0.023310078 -0.046910074 -0.013416864 -0.0064165965 -0.008470453 -0.0018309355 0.029023018 0.03288238 -0.04594275 0.042748842 -0.045143057 -0.012097202 0.004635431 0.04213765 0.049687374 0.008007336 0.023862448 0.002864588 0.04804078 0.04850128 -0.0033218376 -0.015588403 0.04523864 0.034505818 0.0033643246 0.026368942 0.015339527 0.009851657
is -0.027379727 -0.013937034 -0.016231239 -0.019433117 -0.034409486 0.039077315 -0.027708186 0.036219288 0.018888023 -0.04847863 0.014352951 -0.019938648 -0.043440234 -0.0098001845 0.04503418 0.011131119 0.03138678 -0.015628062 0.031164896 -0.024633098 0.027125027 0.036550913 -0.04583211 -0.00123588 0.031013224 -0.044288624 0.022622455 0.006637346 0.005239118 0.04208703 -0.033675745 0.041389 -0.03934177 -0.024973167 -0.025944997 -0.019348169 0.019224834 0.043640543 0.0073005557 0.046910536 0.00031982735 0.010971546 0.012504529 -0.01072054 0.02779046 0.04570916 -0.029585207 -0.015453994 0.032924596 0.021700654 -0.043367397 0.03285322 -0.0385993 0.0004805699 -0.023530817 -0.008557092 0.03138529 0.043456327 0.04052783 0.016797874 -0.03145379 -0.03619983 0.021623421 0.04251286 0.03322221 -0.028233279 0.033646192 0.0362473 0.025294904 -0.049539316 -0.02452047 -0.04304843 -0.020633662 0.027202595 -0.013006963 0.02377111 0.013008881 -0.046170425 0.025308695 0.038731422 0.019335154 0.0065039285 0.00601504 -0.00026703998 -0.012907602 0.023241889 0.048392083 -0.044074666 0.013732854 0.0030118115 -0.039846934 -0.045349147 0.01620492 -0.0030340925 0.043408755 -0.04806087 -0.028354002 0.010623407 0.0407706 -0.004877366
to 0.02303693 -0.02932383 -0.0016008615 -0.0024656542 -0.014938224 -0.048979905 0.039323952 0.008953344 -0.013168514 0.04632442 -0.01773864 -0.019139124 0.020138334 0.04591873 0.04182322 -0.0077324994 0.030615795 0.027337346 -0.009383906 -0.04871267 -0.04196485 -0.004964389 -0.010910701 0.018548142 0.019223798 -0.036595296 0.036152933 0.028177071 -0.015066028 0.028085802 0.03666656 -0.0332513 -0.04849 0.04826275 -0.015447162 -0.04938364 0.013451461 -0.0491843 -0.027061177 -0.009314287 0.0045768507 -0.03776274 -0.0067331903 0.015291121 -0.010721326 -0.015771318 -0.0037335157 0.038610484 0.030267242 0.032203462 -0.01787442 0.027481545 -0.015606128 -0.011213113 -0.047139287 0.019289758 0.022243429 0.049811196 0.007322252 -0.024438012 -0.013328861 0.049294244 0.021702502 0.035102013 0.0146752335 0.020033512 -0.0058963783 -0.01012709 -0.03262142 0.044872295 -0.048542093 -0.01391083 -0.030159462 0.04395138 0.020993914 0.026117157 0.03222127 0.04403014 -0.006373178 0.01186974 0.027637664 0.008546434 -0.04455599 0.013867702 -0.035711836 -0.028754605 -0.042966675 -0.004749298 0.024481606 0.030546773 0.024301175 -0.016553938 -0.005934857 -0.009474419 -0.024159884 0.002365373 0.010738395 0.034299944 0.0006820783 0.033395324
a -0.017920695 -0.044362295 -0.028454447 -0.04720521 0.011949956 0.029527258 0.032629278 0.008236598 -0.036465418 -0.027200734 0.019661795 -0.010952748 0.04997362 -0.031810835 -0.02092638 -0.041332792 0.021041963 0.03885038 0.046565723 -0.03511126 0.005434394 0.042088356 -0.01108253 -0.008083951 -0.03783784 0.037204932 -0.0029288307 0.033911575 0.011688661 -0.02846315 -0.0034837723 0.010063767 -0.03343854 0.0037661567 0.0022115596 0.03685833 -0.045090653 -0.012357831 -0.030414974 -0.012311839 -0.0066584945 0.010903072 -0.0042536147 0.0033833012 0.027004529 -0.036764074 0.0044181123 0.018200163 -0.008922182 -0.014588177 0.04318918 0.0053262003 0.034214366 -0.023670828 0.039270114 0.04597265 -0.0253271 -0.015431512 0.009595621 -0.039721586 0.02219278 0.0156138055 0.001627136 -0.03837328 0.0489265 0.036885288 0.046429183 0.028447125 0.024630737 -0.04263064 -0.03659544 -0.021246195 -0.023476887 -0.035728134 0.021980632 -0.025801862 -0.04152459 0.01917002 -0.025216842 -0.038826846 -0.022222174 -0.045258272 -0.040256284 -0.03641931 0.028356161 -0.04094894 -0.024704099 -0.005739309 -0.011289157 -0.036435485 0.038171623 0.038352754 0.008609582 -0.005824089 -0.015529074 0.023902956 -0.0053928383 0.042442087 -0.020760728 -0.011686575
and 0.034492042 0.020393524 0.024331044 -0.015450884 -0.01425191 -0.0068462268 0.030750405 -2.7727336e-05 -0.024053682 0.00093453005 -0.029478146 -0.02332604 -0.04910413 0.023308229 0.042345535 0.03390074 0.04309411 -0.047981717 0.032569025 -0.039286662 -0.00583905 -0.01950295 -0.044503916 0.03512014 0.038374793 0.005069066 -0.018366493 -0.005696498 0.043120455 0.007977426 -0.048582673 -0.04101025 -0.0035702474 -0.04089694 -0.026309539 0.044749502 0.00388496 0.04190873 0.01743083 0.00044364855 0.03884134 -0.0028226376 0.011875201 -0.038761236 -0.015153397 -0.036752976 -0.030818237 0.0403733 -0.03542938 -0.033087242 -0.01596222 0.021981705 0.0029780269 -0.02701422 0.015480664 0.03734329 0.022005234 0.048140336 -0.0027386546 -0.007966839 0.049343202 0.025858771 -0.0010342114 0.038130943 0.036283676 0.0005046725 0.025868427 -0.027643515 0.04149698 0.045578394 0.005021952 -0.04264995 -0.02385751 -0.047634628 -0.047766138 0.015474167 0.013860453 -0.0030695684 -0.019686067 -0.042329323 -0.03067143 0.04918853 0.04595292 0.010317851 0.0213244 0.01681051 0.048362765 0.0099007 0.04488499 0.03397418 -0.008073796 0.011997066 -0.008069824 -0.025912596 -0.035103403 -0.013313971 -0.04173578 -0.03388225 0.004516758 -0.001714766
between -0.04024594 -0.03062135 -0.0015951283 0.03425068 -0.02169292 0.029272366 0.009284973 0.001891207 0.019466188 -0.009312082 0.021950249 -0.008478511 -0.037958074 -0.04019792 0.012630846 0.028215136 -0.012379549 -0.04632002 -0.0012933016 -0.010255016 -0.042893935 -0.01309352 0.0040415414 0.0072243325 -0.040463794 0.046249155 -0.008141279 0.03859747 0.027064238 -0.008215167 0.011371184 -0.022504581 0.041650023 0.008209597 -0.022815455 -0.033284858 0.024690304 0.0035728216 -0.025134731 -0.029601395 0.025619175 0.04850844 -0.04823594 -0.03756436 -0.03807168 0.01840404 -0.01629921 -0.031778157 0.021304812 -0.019212617 0.009620499 -0.013059031 -0.02536714 -0.03733022 0.029913198 -0.015769958 0.009870578 0.024102341 0.043267038 -0.042640984 -0.012331642 0.036954965 0.035313617 0.021233048 -0.041001044 -0.0069322474 -0.010583818 0.039745364 0.0031659491 0.039517272 -0.004378807 -0.021386756 0.023771014 -0.01586584 0.020401228 -0.016924571 -0.020210123 0.025350641 -0.045673907 0.038110804 -0.010873973 -0.046486985 -0.025495661 -0.038901735 0.027130675 -0.046179343 -0.023755074 -0.042259872 0.04783913 -0.032322336 -0.045089044 -0.004110016 -0.0035607703 0.023130048 -0.04617517 0.043224726 0.010967553 -0.0275195 -0.013024438 0.01849426
time 0.019679915 -0.044731747 0.0047456734 0.002675496 0.040865246 -0.0072516426 0.030622032 -0.008158267 -0.023176705 0.010715567 0.043016385 -0.03159138 0.016646836 -0.008799456 0.009259116 0.043328512 -0.029235436 0.02831364 -0.022786964 0.009292971 -0.0010488629 -0.00625949 0.006607078 -0.016170956 0.012862626 -0.021598531 -0.021980632 0.04125246 0.049249735 -0.005631853 -0.046608843 -0.036388744 0.047005203 0.048891965 -0.044193912 0.036381844 -0.044104397 -0.043308865 -0.005049061 -0.022037912 -0.032112025 -0.013352644 -0.022910846 -0.020026123 -0.03138496 -0.023806442 -0.0071436763 -0.017362762 -0.0052089095 0.02537502 0.0074788444 -0.00982368 0.019456256 0.015444819 0.040629756 -0.032702446 0.031204078 -0.010877859 0.03621844 0.008822013 0.011037111 0.026202146 -0.024048984 0.048753623 0.002842594 -0.016453695 -0.03276521 0.02002449 -0.027652502 0.043833826 -0.0009485483 0.028480593 -0.026078952 0.028007757 -0.036254108 -0.00045595318 0.036282625 -0.008588493 -0.014204718 0.026481058 -0.00043997914 0.04090487 0.021388356 0.013678525 -0.0023152828 -0.01468762 0.0075090416 0.04392456 -0.037347663 -0.017129838 -0.0063012354 -0.037141073 0.039338518 -0.014897443 -0.019315898 0.024123017 0.021183144 0.0059183724 0.00451795 -0.03719915
serial 0.031765807 0.03904039 -0.010266222 0.012622204 -0.006221153 -0.024657512 0.024016742 -0.00768907 0.005406391 0.010479879 -0.027550042 0.04791527 0.030324306 0.038272094 -0.030414224 -0.012945186 0.0064542405 0.032453958 0.017445076 0.04595733 -0.02710395 -0.009623241 0.023879085 -0.048482835 0.00804751 0.045595612 0.015690688 0.004539799 -0.045828737 -0.020111227 -0.030971397 -0.0034458153 0.041091863 -0.045310773 -0.039965082 -0.016220164 0.03312708 0.043275442 -0.02074243 0.038204517 -0.045127023 -0.03805684 -0.0025708787 0.037587 -0.023778273 -0.009773828 0.0427613 -0.044627964 0.010350931 0.036294702 -0.040528 0.030525673 -0.04108473 0.03434323 -0.0011516325 -0.03898094 0.03262342 0.03528366 0.033070456 -0.021775996 0.012771416 -0.0053897128 0.03923693 -0.014699124 -0.043014634 0.028716411 -0.010440648 0.029561173 0.03614003 0.036224876 -0.049058866 0.048769865 -0.049442887 0.026288662 0.044108164 -0.011341441 -0.04318216 -0.029418683 0.038458455 0.018708061 -0.025375044 -0.025342798 -0.004379619 -0.040914964 -0.0032812245 0.012999866 0.03599448 0.042102966 0.008004345 -0.0063527003 0.025124315 0.010435034 -0.013206184 -0.034459077 -0.0099480525 -0.03508191 0.03990003 -0.047888707 -0.029762877 -0.04333165
interval -0.028282225 0.03598014 -0.025547242 0.00331036 0.041335333 -0.038449656 0.040279064 -0.016990852 -0.0018936396 -0.023733247 0.04089432 -0.00070362166 0.0029899701 0.01105056 0.019879092 0.008486271 -0.022984361 0.0031322017 -0.0046772845 -0.035188593 0.023148146 -0.00674095 0.022642482 0.025389086 0.035501923 -0.0050084963 -0.030142022 0.03106827 0.0012343153 0.025343273 -0.025573885 -0.022056913 0.041397896 0.00060931593 0.008958947 -0.01764556 0.02095003 0.047436785 -0.0005307682 0.040868882 -0.021522153 0.021276165 -0.036641944 -0.0027017593 0.0038123615 0.035946313 0.039107744 0.030818786 0.017152656 0.018334534 -0.03426794 0.0015262365 -0.021085024 -0.016144883 -0.0060143247 0.027795259 -0.029120613 -0.014485788 -0.02753805 -0.03854264 -0.04412831 -0.0024874322 -0.026759459 0.0059911497 -0.024410654 -0.045266796 -0.03599163 0.009909391 0.029248703 0.022373978 0.0029067993 -0.013199292 -0.013486385 0.0025457032 -0.010986663 0.031659197 0.02665231 0.04128171 -0.02871393 -0.046947848 0.021355335 -0.023303783 0.034420136 -0.03932756 -0.027214969 -0.046949662 -0.03533876 0.03578564 0.030876648 -0.027425516 0.0036748424 -0.045158066 -0.044398487 0.028468993 -0.04732236 0.012117825 0.022344064 0.04113451 -0.035662353 -0.01269846
than 0.0020977631 0.04039165 0.02599341 -0.02654983 0.03836051 -0.0048628226 0.04344583 0.0025070794 -0.036499202 0.030035425 0.04301684 0.0009354949 0.048085365 -0.0010412224 0.021560814 -0.03274502 0.02571306 -0.0073463544 -0.005224943 -0.044749536 -0.024445033 0.03433721 -0.01658503 -0.021934723 -0.015765823 -0.030096268 -0.022340883 -0.042630043 0.02992921 0.0141497515 -0.014647126 -0.040211894 -0.00317619 0.043597724 -0.02867992 -0.009826779 0.020371351 -0.013726603 0.048100855 -0.049337316 -0.008505367 -0.010265328 0.03266189 -0.00026780367 -0.019672764 -0.041496325 -0.03035505 0.038719084 0.036321413 -0.043036114 -0.024860168 0.019888867 0.03528614 0.029692594 0.021482412 0.014610019 0.024079029 -0.02866503 -0.005840052 0.045511533 -0.0044698603 0.047799338 -0.029995847 0.034496043 0.039407264 -0.02067759 -0.009512354 0.03717302 -0.0068844333 0.00046021864 0.033891562 0.03301679 0.041632842 -0.025870396 0.0023769364 -0.02759756 -0.0018641241 0.012729179 -0.046155836 0.02752931 0.023570929 0.04065727 0.04039124 0.035431433 -0.024330784 0.047429774 0.016036931 0.041141424 -0.0036363117 -0.04658295 0.027911711 0.040865127 -0.01901759 0.026523065 -0.025223602 0.04141367 -0.02786137 0.015126381 -0.006238889 -0.025049543
be -0.024542892 0.027968097 0.02541164 0.044602487 -0.044780698 -0.0010929815 -0.015166067 0.047586586 0.044413183 0.008589219 -0.048090603 -0.022441292 -0.0043949485 -0.0042075515 -0.03507154 0.02976397 0.023727033 -0.043667402 0.020623948 0.048788372 0.033791553 0.04587133 -0.045636058 0.021714654 -0.033631466 -0.0058997646 0.025525007 -0.030244006 0.0344314 -0.018647265 0.023062479 0.009063125 0.00026435778 0.040987622 -0.011726927 0.034875143 0.03114355 0.020298112 0.021785926 -0.044726204 -0.0020738728 0.017986331 0.010800671 -0.017098509 -0.039340258 0.0059731603 0.033426497 0.023359682 -0.0006430745 -0.027213847 -0.012729764 0.02518573 -0.023937894 -0.01847453 0.024602 0.041704606 -0.045212507 -0.01388086 0.0005521886 -0.02341324 0.04110973 -0.02573501 -0.021798873 0.027378108 -0.02480234 -0.015951373 0.036451947 -0.02292006 0.0086320415 -0.018101621 0.0060217753 -0.04544277 0.022654746 -0.014674734 -0.043357193 0.037432317 0.0056465976 0.028070722 0.039052453 0.0025293007 -0.031010771 0.026333403 0.0053384416 0.04961301 0.028657291 -0.0017332546 -0.04763453 -0.019749224 0.025093805 -0.025617028 0.014909256 -0.0016697161 -0.011885285 0.0016254671 0.0036433227 -0.038478147 0.032827053 0.03742853 -0.008738421 -0.019196868
5 0.018402625 -0.031132102 -0.01674961 -0.027109325 0.036937203 0.009272777 0.039620984 -0.0073889866 -0.025669444 0.0360216 -0.008548986 0.013627004 0.0016203523 -0.042452704 -0.021843636 -0.03269737 -0.029471828 0.020823564 -0.0035899058 0.040879335 -0.04581976 -0.040767513 0.001248192 -0.014173854 -0.0046458356 -0.012565125 0.025332462 0.028807152 -1.7903745e-05 0.04497795 0.030066464 -0.017357957 -0.032990336 -0.03955859 0.025041115 0.049261276 -0.0341869 0.035821345 0.010431837 0.045964267 -0.033938278 0.044244613 0.0030403621 -0.013391603 -0.026859058 0.015857521 -0.041351795 0.016135704 -0.041899193 0.0058165565 0.0030970797 -0.0044028275 0.04895154 -0.03678603 0.043073643 -0.025272572 0.008605648 0.0033156872 0.0027197376 -0.0015296452 -0.04192536 -0.0061556585 0.017040443 0.009142041 0.04437126 0.010533057 0.008476675 -0.008301042 -0.022161698 -0.020971918 0.005742848 -0.033159457 -0.017440964 -0.028445005 -0.040898763 -0.04238093 -0.03485348 0.038911033 -0.0101469755 -0.030991018 -0.007580351 0.03961197 -0.01563587 -0.04176985 0.023429405 0.020481076 -0.02850746 0.047197293 -0.0010940656 -0.04852576 -0.033201575 -0.047028698 0.04186349 -0.03576622 -0.0037745126 -0.03645576 0.045061935 0.033886578 -0.01726345 -0.0011458397
days 0.0012878776 0.045619022 0.02698544 -0.037888706 -0.024423564 0.009755589 -0.038043045 0.04322839 0.027965333 -0.046155084 -0.04587972 0.0038440824 0.040626768 -0.029827738 -0.044533994 -0.020594597 0.01299895 -0.02057358 -0.03197763 0.039990786 -0.011284031 -0.021401763 -0.016007006 -0.019239282 -0.016333245 0.045771945 0.022082996 0.048440073 -0.004008878 -0.047236037 0.012812708 0.01253159 -0.027743543 -0.025759995 0.045579616 -0.041821312 0.015297625 0.049106393 0.02015451 0.023227837 0.038711037 0.04864538 -0.04558474 -0.0018994585 -0.011352539 -0.03750036 -0.02660253 0.034592513 -0.004345335 -0.045171585 -0.008457147 0.037764523 0.017446939 -0.017523993 -0.026688313 -0.030267347 0.0024565235 0.0028184764 0.03779831 0.027518991 0.018804792 -0.016321994 -0.023956168 -0.045841586 0.024403442 -0.029983342 0.036744956 0.016498808 0.025674645 -0.0068402663 -0.0031010993 -0.0007675998 0.014784899 -0.01966815 0.037882034 -0.036580075 0.037875477 -0.019452417 0.030089546 0.04579785 -0.030621005 0.0058750883 0.04162122 0.025476981 0.018531594 0.02447733 0.030556027 0.037937287 0.02213553 0.014119577 -0.0010826811 0.0278357 0.0024658814 0.01754332 0.012296595 0.00810479 -0.04131769 -0.004599966 0.006125223 0.0005602017
– -0.029437376 0.016507436 -0.019798433 0.017866123 0.00012416765 -0.04591601 -0.026201595 0.01603559 -0.0004345663 0.029308286 0.029949252 -0.0086192265 -0.017661013 -0.027552236 0.043854866 -0.009538092 0.032356415 0.00789367 -0.0030952804 -0.0047296174 -0.031081045 0.007566083 0.04659107 -0.0039783716 -0.013363503 0.029920604 0.03245132 0.004224658 0.035306226 -0.02332883 0.013144519 0.049919594 0.042432237 0.040696386 0.010273289 0.011202168 -0.0072712526 -0.01070907 -0.0010391474 -0.027010191 -0.034390606 -0.0028226264 -0.0019914135 0.047768664 0.03015599 -0.043982353 0.021277655 0.03537896 0.04326013 0.01832601 0.04343437 0.029622246 -6.0796738e-06 0.041768584 -0.046386193 -0.02248683 0.039181914 -0.011252128 -0.04504949 0.042678367 0.024141286 -0.0068809614 0.03456526 0.025627721 0.025012579 0.0049974434 0.008715905 -0.046785723 0.0069548264 -0.045862567 0.024178114 -0.04489466 -0.047844436 0.03688765 -0.04810221 -0.015266933 0.0023931377 0.02665234 0.011187207 0.03015155 0.024043512 0.03777692 0.024880651 0.04190698 -0.008205723 -0.0025825873 -0.0074504614 0.018838856 0.04094087 -0.03137492 -0.010034524 0.028610181 0.026605736 0.009667028 -0.016857672 0.040536765 0.03655361 0.008348942 -0.036299445 0.046201814
are 0.024957601 -0.043696262 0.047118116 -0.03394928 -0.012685597 0.027901363 0.012557674 0.03461219 0.013230991 0.023439158 -0.031910777 0.0052509084 0.0150146 0.015230846 0.010115124 0.028306652 -0.014778674 0.034874845 0.044879768 0.03450543 -0.04337082 0.002113901 0.041886676 0.03719503 0.012736071 -0.036893703 0.0051588193 0.03330001 -0.033301532 -0.039847948 0.002372872 -0.027990116 -0.012464333 -0.03328202 0.0138939135 -0.040772296 0.024973724 0.024579596 0.040415 0.008884512 0.030777875 -0.04787543 -0.016296387 -0.042614676 0.039123956 0.014834251 -0.019929303 -0.0056829676 -0.03940357 0.007243313 0.0365252 -0.010115385 0.028115403 -0.030143201 0.030249905 0.012294222 0.022116628 0.037527625 0.020125914 0.030570995 0.02884053 0.047144424 0.04715464 0.00721382 0.03543425 0.01936901 -0.021173859 0.005031429 -0.0037662275 -0.0131415725 -0.041318048 -0.022657324 -0.049371805 0.02147187 -0.04747168 -0.009021021 0.036586646 -0.042657364 0.017661598 0.027858857 -0.005609978 0.048941467 -0.024446642 0.002718389 -0.012587596 -0.012331508 -0.0025601164 -0.048402738 -0.0404989 -0.044921625 0.024342384 -0.042210806 -0.019923104 -0.04755589 0.005778171 -0.014551364 -0.01286931 -0.045511723 -0.03790952 -0.038038053
viruses 0.009617556 0.04823127 -0.02560302 -0.02369163 0.019814398 -0.040485285 0.02865323 -0.0025370829 -0.031890333 0.02652159 0.011802722 0.02338728 0.04979552 -0.02883023 -0.03339087 0.02993137 0.046197627 0.043507207 0.04540256 -0.03851507 -0.015516378 -0.0106183775 -0.018771244 -0.0401389 0.013825145 -0.032757543 -0.0014285222 0.032183062 0.041212622 0.020813216 -0.016338266 0.015865196 0.0030206218 0.020597603 -0.044171643 -0.0080638155 0.025779042 -0.03147763 0.020577122 0.011728656 -0.040491987 -0.0050778873 -0.02863108 0.040678505 0.03138173 -0.04709668 -0.0070711374 0.011351813 0.008149814 -0.039141476 -0.039414644 0.028924275 -0.012621939 0.0085859895 -0.043773808 0.00027930737 -0.0253523 -0.04245591 0.02931315 0.036492813 -0.0076858625 0.011896014 -0.041609764 -0.021705294 -0.009354223 -0.006527208 0.045349788 -0.020101404 -0.031511143 0.038916256 -0.008812107 0.0061207637 -0.015095271 -0.010653686 -0.004285384 0.007101584 -0.034333456 0.04938979 0.02810273 0.0077668205 -0.039491702 0.00022451952 0.0057403333 0.00056498125 0.012513246 0.007843684 -0.03877914 0.019025777 -0.045143154 0.012112759 -0.041893113 -0.035904396 -0.018670786 -0.048629414 0.042248238 -0.020660317 -0.02939024 0.018678319 -0.03453686 -0.016091168
shorter -0.0045180693 0.02567688 0.014598239 0.016559433 0.0142874755 -0.043623626 0.039481428 0.03441007 0.0032657385 -0.010664463 -0.020647025 -0.04205657 0.021614697 0.012053955 -0.03475101 0.024893526 -0.010174774 0.01495314 -0.0320582 0.012093294 -0.019405425 -0.045882452 0.005056333 -0.019828165 0.029668022 0.034352314 -0.023898637 -0.03635651 -0.030797172 -0.023890972 -0.036235593 -0.019384075 -0.0048662536 0.013245437 -0.048706234 -0.041403987 -0.045351814 -0.0358639 0.014497224 -0.006495081 -0.037131608 0.018537845 -0.016833197 -0.03494755 0.028817449 0.03074484 -0.0050559267 -0.010044921 -0.0030033477 0.042283442 0.019716535 0.04441229 0.011243165 0.019622196 -0.017531168 0.040316846 0.023331966 0.011141203 -0.016906738 0.008412361 0.0029754154 -0.027911102 0.03574306 0.015366819 -0.032554165 -0.04917418 -0.038963474 -0.0493492 -0.017343126 0.0369295 -0.04941615 0.03801104 -0.027447104 0.00033506006 -0.009624481 -0.0053716414 -0.023654079 -0.019426657 -0.03541235 0.023416523 0.010536112 -0.04476583 0.047832835 -0.003506817 -0.0062680133 -0.02606262 -0.016692352 0.01871207 0.03877456 -0.03726132 -0.0040411726 -0.025593448 -0.037722327 -0.01200236 -0.040988006 -0.044018935 -0.035120845 -0.022137035 -0.045115303 -0.043103006
from -0.006801497 0.036698926 -0.02244996 0.040312592 -0.01903571 0.042708207 -0.01690688 -0.046470106 -0.042625796 0.01642916 -0.0025356635 0.001262676 0.035279002 0.010369517 0.042740766 -0.012337707 0.009572256 -0.020463968 -0.044900894 0.03485849 -0.046424117 0.0033080205 -0.0061114654 -0.019634688 -0.037642933 -0.02813902 -0.03494183 0.013266373 -0.0295236 0.032404248 -0.0038711205 -0.011079311 0.03566194 -0.003525149 0.044699278 0.011386979 -0.0021041855 -0.0012849942 -0.00082633644 0.019199397 -0.019745423 -0.034015454 -0.042375363 0.008313645 -0.03703133 -0.018006314 -0.02613926 0.024845209 0.03672285 -0.046837974 -0.04323212 -0.038149573 0.0045989044 -0.035666347 -0.0047570243 0.01897354 -0.0050575845 0.023478162 0.02941579 0.029575918 0.015386891 0.03483862 0.031625498 0.048490655 0.019110393 0.038193356 0.035701584 0.027393032 -0.013859548 -0.035596706 -0.04783633 -0.039647054 0.020182434 -0.038822748 0.041740883 -0.0042241327 0.04280876 0.033035945 0.048517536 0.029462244 0.014769021 0.038460407 0.011815894 -0.042048503 0.032035556 0.031474482 0.0031837597 -0.0035794266 -0.0061854497 0.044496704 0.015249286 -0.044834234 -0.011291824 0.036841366 -0.022494007 -0.028746843 -0.0396855 -0.0004036203 -0.0061067827 0.02357116
appearance 0.009455778 0.043661203 -0.031124605 -0.015536774 0.041694846 0.008845866 0.011802506 -0.005178094 0.036394108 0.023761366 -0.031035472 -0.049365785 0.026402008 -0.012254406 -0.017239522 -0.030377125 0.019891169 0.03660747 -0.019296933 -0.035055626 -0.022999942 -0.041136455 -0.042233836 -0.018715404 0.018280815 0.029057752 -0.0056562535 -0.03312155 0.011179149 0.047484268 -0.0086963065 -0.011441637 0.0026003122 -0.02430321 0.037488166 0.047498975 0.046222392 0.049636457 0.025011208 -0.03206005 0.0069183335 0.017479349 0.031687472 0.0015204065 0.012325633 0.047061715 -0.046132065 -0.025785184 -0.041052185 0.018465769 0.03296386 0.007191729 0.03987402 -0.008446492 0.04848205 0.04001688 0.030874345 0.009772588 -0.027516639 -0.020391727 0.03722674 -0.0017735735 0.021431651 0.028976861 -0.0092388615 0.040779088 -0.0033772364 -0.0137268305 -0.03472694 0.0035139695 0.034994293 0.018385481 -0.025899267 -0.014021777 0.023351636 -0.010435749 -0.036527265 -0.038544524 0.014327932 -0.031303573 -0.0059522763 -0.00067205355 -0.038970638 0.023262572 0.041232634 -0.026814818 -0.0014688261 -0.03570696 -0.01530553 -0.008333553 0.027542438 0.0029097572 0.041248072 -0.019900084 0.027389076 -0.047140148 0.04199097 0.009505965 0.04320431 -0.048600484
symptoms -0.02613845 -0.010119665 0.0099332705 -0.04325683 0.0118814595 -0.03740381 0.041101526 0.017411795 0.022566024 0.04258844 -0.020888401 0.026100587 0.022551987 0.008556463 0.029407863 -0.049090326 -0.013652407 -0.04957497 0.04979633 0.0049591176 0.033929896 -0.015028574 0.04392531 -0.013982844 -0.0005378723 -0.038601615 0.027580742 -0.0041396506 0.027719561 0.0009235032 0.02957255 -0.020149862 0.019671347 -0.013805352 0.043054592 0.022724953 -0.015639089 -0.012117423 -0.026504612 0.0236503 -0.035691 -0.036266852 -0.004448533 -0.026830494 -0.014048614 0.022752408 -0.046026707 -0.042963434 0.040274445 0.011103272 0.044589687 -0.03758694 -0.023615396 0.00026364252 -0.044627454 0.032532338 0.023359526 -0.01494173 -0.00090271235 -0.04957217 -0.014536392 0.04029781 -0.0005989298 -0.007973887 -0.0339519 0.034668807 -0.030203713 -0.049861263 0.03892121 0.045411613 -0.022356737 -0.01742066 -0.005764913 -0.0040776245 -0.02203927 0.011564232 0.032950845 0.030376319 -0.005330015 0.043658983 0.04870614 0.046997998 -0.030184735 0.008588873 -0.0063199885 0.035070073 -0.020921016 0.04490305 0.045004252 0.033433225 -0.026101505 0.02295364 -0.027891576 0.047440242 -0.047014713 -8.975342e-05 0.04338828 -0.006346572 0.021149661 0.014122117
while 0.009867679 -0.02656802 0.024339948 0.0213377 0.04913983 0.039269183 0.03778967 -0.03438275 0.012004007 0.012972165 -0.04016285 -0.043677654 -0.020689487 0.02401099 0.0400409 -0.044759262 -0.037546337 -0.031765953 0.03222325 0.009924687 0.021554995 0.006292641 -0.002175402 -0.039827205 -0.0245214 -0.008678436 0.0018223152 -0.048610833 -0.01958493 0.036233846 -0.017990924 -0.017878722 -0.027789164 0.04981241 -0.014117945 -0.04268856 0.019216504 0.027548563 0.00079745054 0.016851727 -0.0065021142 0.030813042 0.008207761 0.04855751 -0.045633495 0.020399 0.038312826 0.016033676 -0.017594386 -0.016783286 0.03383361 0.03191909 -0.029813195 -0.044415843 0.019186664 -0.0068513155 0.03322692 0.006564606 -0.045708872 -0.047703065 0.04008043 -0.00946803 -0.04450016 -0.022626674 -0.043350365 -0.005711794 -0.02131064 -0.0017966628 -0.0012177825 -0.03006035 -0.023101378 0.012832593 -0.030601883 -0.028781284 -0.0040400624 -0.04233247 -0.016264021 0.0062175766 0.012240898 -0.036783945 -0.03219967 0.032664206 -0.011103701 0.04487804 0.03577522 -0.031337515 -0.016141914 -0.01587857 -0.046880055 0.03542832 -0.016002178 0.0266856 0.031556655 0.04701866 -0.006505478 -0.017443847 0.038186375 0.03573629 0.015474889 0.01904824
3 -0.037742294 0.018831898 -0.0047083497 -0.040524077 0.044382464 0.03398912 0.03956895 0.018378388 -0.03416276 0.042054202 -0.034927867 0.015063498 0.0353246 -0.04563589 -0.028025115 0.04360846 -0.03690474 0.027337316 -0.0007525794 0.03663386 -0.03192525 -0.025469601 -0.044276144 -0.0417071 0.03558438 -0.027602602 -0.036097836 -0.034747384 0.02071054 -0.049368944 -0.0010220408 0.04221506 0.030840937 -0.04902908 -0.021042956 0.009608459 -0.028724957 -0.016960122 0.0078059435 0.01539984 -0.01811098 0.023891974 -0.013549518 -0.029723931 0.049528886 0.0358654 -0.005639065 0.042324368 -0.009154629 -0.031664744 0.008337963 -0.029891217 0.02741703 0.047509316 0.043653216 0.026010517 0.028115679 -0.018505193 0.04245818 0.017979946 0.006869305 -0.03606385 0.04286221 0.000592269 0.030833911 0.013170149 0.049667846 -0.023495544 -0.04120473 0.048551407 0.044448648 0.021182124 0.043600764 -0.047263086 -0.04100629 0.022306453 0.0058993213 -0.04694233 -0.0068420395 -0.039205503 0.020467762 0.04112074 0.0010702498 0.041514006 -0.027037704 -0.041938983 0.037314843 -0.010763455 0.016414475 0.008820437 -0.0115500465 0.03905687 -0.011047982 0.0074715987 0.04540691 0.016336624 0.031559322 0.026984144 -0.030435527 0.03990266
this -0.00032712147 0.017017294 0.038935903 -0.035644483 -0.012363326 0.04284321 -0.025230492 -0.03291124 0.019808006 0.010514475 -0.028537834 0.036514666 -0.03777262 0.047546115 0.031952288 0.005673744 -0.019262766 -0.019998705 -0.029399633 0.04490156 -0.04354092 -0.0036642775 0.0009963289 0.04326273 -0.018381454 -0.001127921 0.00979371 -0.048598792 0.040026736 -0.0048201904 0.046675157 -0.001266621 -0.01982583 0.016612116 0.043821607 -0.024396002 -0.020001639 0.046572592 0.0013464317 0.036030542 0.040761698 -0.038143337 -0.039689243 0.03329766 0.040624645 -0.04319483 -0.038917292 0.028632853 0.029123668 -0.03972421 0.043007102 -0.021848787 -0.017975282 0.023187187 0.0060633793 -0.045060433 -0.013073813 -0.03499199 0.04440775 -0.027922845 -0.010273553 -0.047979202 0.018102895 0.04050238 0.019755807 0.016491842 -0.0051111206 -0.03504194 -0.025615478 0.036142495 -0.0008617863 0.027426962 -0.047838237 -0.005457081 0.015546728 0.015023086 0.034806084 0.040451493 0.023799028 -0.02996099 -0.010049604 0.009997465 -0.017008819 0.035654258 0.0062796585 -0.016838979 -0.023526395 0.013909806 0.038299445 0.04803331 -0.006589733 -0.0174466 0.02636918 -0.043984402 -0.016479991 -0.028836787 0.03797939 -0.0364079 -0.017898154 0.020344581
that 0.046144236 0.015628424 0.016030025 -0.009074785 0.038154993 -0.03124628 0.025045838 0.032772128 0.004369281 0.012212861 -0.03151344 -0.03725467 -0.011555005 0.0035755746 -0.02172035 0.0045662746 -0.014693845 -0.011506356 0.021659661 -0.024652338 0.035998855 -0.028509319 0.014241312 -0.023596585 0.020326901 -0.04585154 -0.03902308 -0.039886247 -0.024211824 -0.04824623 -0.021403348 0.014898825 0.028783586 0.04572871 0.0404382 0.017278302 -0.016073681 -0.04068036 0.00821048 0.03726128 0.048519555 0.025311682 -0.024129618 0.019325148 0.00034358352 0.016948845 0.011246968 -0.0198928 0.033931557 0.023896862 0.04188985 -0.0136039965 0.001059711 0.0055515543 -0.011220716 -0.017292034 0.003794454 -0.016477585 -0.019707536 -0.019205451 0.013702128 -0.014888752 0.014949564 0.0055046454 0.026031543 0.007300008 0.01412392 0.042026665 0.031807546 0.048002254 0.042788174 0.04068551 -0.016646098 -0.021258462 -0.026103867 0.03907669 -0.03329338 -0.0055270568 -0.012803294 0.029534128 0.0018998273 -0.017392289 0.023723353 0.01005863 0.004321683 0.02641325 -0.014015675 0.0014849901 0.019126061 0.016054306 0.027381446 -0.032797515 0.0009888895 0.0080599785 -0.03826059 -0.03791981 -0.0056756847 0.04612161 -0.025030041 0.03188279
can 0.044665884 0.011267792 -0.00957334 -0.043170836 -0.01832657 -0.028758395 -0.033118356 -0.018260766 -0.025059486 0.047098327 -0.03349011 -0.031520188 0.02102026 0.0008252375 -0.041372348 0.028625872 0.019266281 0.041107748 -0.01091174 -0.03842195 0.04004555 -0.03071152 -0.03159195 0.043650065 0.010520779 -0.020465625 0.012531195 0.009804152 -0.0061871894 -0.014598869 -0.02021854 0.004114937 -0.043105114 -0.029684031 -0.016806245 -0.01666677 -0.0150793195 -0.0040810816 0.04267334 -0.025999308 -0.0038546212 0.025680784 -0.038265325 0.033864092 0.04754379 0.048495304 0.013769854 0.04631448 0.034318794 -0.011982381 -0.037338663 0.04981556 0.029167306 -0.028684963 -0.03747066 0.02466115 -0.023526609 0.043980446 -0.0304479 -0.027319372 0.016109314 -0.040250063 0.024696205 -0.049980044 0.04225563 0.028246213 -0.048546493 -0.02939464 -0.016754068 0.0028403513 -0.0069780573 0.021900382 0.0438548 0.033656243 0.015284445 0.020007003 -0.035358407 0.0015579686 0.04190821 -0.042567886 -0.0011021271 -0.0342312 -0.030076945 0.028594587 0.02174959 -0.04974028 -0.02865678 -0.011660196 -0.0403669 -0.03933332 0.022129107 -0.016056836 0.038878743 0.035144273 -0.009870183 0.002851963 0.006793119 0.044323277 0.03803027 -0.03979869
in -0.033600736 -0.010393418 0.04551765 -0.023997856 -0.047140278 0.029808152 -0.045853365 -0.013473786 0.03952885 -0.026499702 -0.0065805092 -0.0051468834 -0.03473389 0.039101627 -0.001828216 -0.045372333 -0.030839002 0.010213245 0.03998332 0.03578264 -0.040783037 0.047316875 0.023621831 0.025839198 -0.039591085 0.02851108 -0.04048877 0.036829125 -0.030048514 0.036854375 0.009453319 -0.012927808 -0.0032218583 0.04830091 0.030705754 -0.011785425 -0.04938679 0.025044408 -0.021305157 0.040779162 0.0014635101 0.008750714 -0.047698308 -0.033559024 0.0063833706 -0.01394416 0.041155268 0.040797744 0.031571116 0.020159137 -0.008185804 -0.026555395 0.029671539 0.028858509 -0.03366866 0.0131843425 0.030989137 0.02901328 0.004162919 0.026793923 0.0061153993 -0.018014718 0.03847232 -0.02874471 -0.022094643 -0.019358253 0.01382852 0.046609547 -0.016472198 -0.0032047406 -0.021712733 0.00068380684 0.037012268 -0.0030881278 -0.0029737465 -0.02576524 -0.042609643 0.019856755 0.03743157 0.0039710775 0.019197416 -0.019725252 -0.03633783 0.027638111 0.0295357 -0.020703424 -0.038500488 0.009413563 -0.003759347 -0.036748685 0.020817194 -0.017742824 0.010580648 0.036550675 0.025633957 0.007013332 -0.021988785 0.022754598 -0.014508806 0.04016452
major 0.044017944 -0.038507722 0.03616095 -0.03294488 -0.0014342181 -0.0322052 0.009558536 0.04844496 0.012815092 -0.037802972 -0.019451667 -0.04906125 -0.011647187 -0.022278845 0.017125797 -0.024388993 -0.024339462 -0.026006674 0.006004773 0.01777533 0.049867216 0.037542734 0.011483528 -0.04027146 0.03971615 -0.035782218 -0.032031335 -0.009410061 -0.040967762 0.010777295 0.043267917 -0.02222898 -0.02233597 -0.0015227571 0.021015558 -0.027366221 0.030270685 -0.0492646 -0.027922345 -0.020950843 -0.008641552 -0.024995899 -0.0008144602 0.027748976 0.008977354 -0.038996004 -0.04997473 -0.019700741 0.01455364 0.04415736 0.025044445 0.020717327 0.018656854 0.019448373 -0.007971715 -0.027474284 -0.00072393566 0.02471492 -0.011231996 0.0034008734 -0.019524777 -0.04337261 0.039347265 -0.012249112 0.014910851 -0.0008803718 -0.027909875 0.018140864 -0.018749822 0.0011499412 -0.029471254 -0.033441354 0.009560585 -0.0077380314 -0.024885178 -0.018759264 -0.044628013 -0.0072931163 -0.038100053 -0.022665774 0.022466365 -0.019056428 -0.03823029 -0.03132482 -0.023330295 -0.0020279177 0.0026393756 -0.011394013 0.0043394677 0.04122225 0.035559606 0.01382545 -0.04512018 -0.016162086 -0.010067739 0.017817188 -0.022054482 -0.0048845187 0.032075766 0.008174062
driver -0.020489085 0.029978182 0.04930068 0.018821765 0.019280147 -0.027768219 0.040751267 -0.023921823 -0.020483626 0.03497768 0.035186518 -0.036724795 0.001655899 0.035798755 -0.007073473 0.037091102 -0.007361125 0.011815082 0.032347944 0.04214343 0.009222783 -0.016953755 -0.027657663 -0.045142185 0.03896984 0.03599349 0.021643292 0.010093082 0.043982867 0.028893147 -0.02388519 -0.014457595 0.042866196 0.02040987 0.018063609 0.028932918 -0.033590093 -0.022681678 0.012192905 -0.046588827 0.04137701 -0.038304828 -0.01640115 -0.011033021 -0.006808568 -0.024122333 -0.028064394 0.035025444 0.034932043 0.024484064 0.020106439 -0.03503368 0.03269385 -0.038295615 -0.038969804 -0.017191052 0.0461136 -0.033339582 0.005282175 0.030399192 0.008205175 0.000777103 -0.04118433 -0.00722567 -0.04484229 0.044181798 0.031321052 -0.03706033 0.024978306 0.030522693 0.0041636825 0.01302186 -0.03754288 0.022148024 0.043127727 -0.01872766 -0.004100777 -0.012983225 -0.014895536 0.028365996 -0.013603188 0.04297388 -0.04736487 -0.011839069 -0.034248546 -0.046721887 -0.015018463 0.048842218 0.013812367 -0.0052181594 0.017671179 0.02972262 -0.026325727 0.009034477 0.016317975 -0.027238583 0.019337546 0.016754318 0.046707574 -0.034268394
number -0.002092503 0.047267918 0.032812808 0.0178417 -0.00068785995 0.025083605 0.019655142 0.034358468 0.016731743 -0.025899542 -0.00917796 -0.029369105 0.037068043 0.022896115 -0.0016739853 0.02843685 -0.029658092 0.028613973 -0.008012556 -0.040750682 0.04632226 -0.024152948 -0.009377204 -0.04573908 0.009374596 -0.02626226 0.047623646 0.032926146 -0.028666401 0.028504554 -0.03205333 -0.027385402 -0.035651613 0.00016462803 0.01779211 -0.034168802 -0.015437864 -0.02632699 -0.023498489 0.0052613243 -0.0062991865 -0.03891605 0.035439696 0.03610636 -0.037125446 0.041800562 -0.045577314 -0.04693189 0.0038114898 0.04439393 0.013827335 0.041163947 0.036150727 -0.005014371 -0.0093274005 -0.0009957775 0.03182279 0.0046045072 -0.013579678 -0.014299978 0.03989767 0.013324168 -0.04300655 -0.01687225 -0.025381709 -0.02698021 -0.0413978 -0.046442 0.0105443485 -0.04734216 -0.045841135 0.02059425 0.028032552 -0.0034191236 0.013809454 0.03778107 -0.017629445 0.025201205 0.0016617663 0.0481585 -0.00021199137 -0.030227745 -0.0037680045 0.03570609 -0.023270166 0.009501446 -0.012398839 0.012169898 0.041072037 -0.0015082136 -0.028467393 0.03665291 -0.040172804 0.012530271 0.015900467 -0.029228603 -0.034167625 0.0033463128 0.0069836862 -0.03807794
2 -0.0475379 0.036236595 -0.024921943 0.046574835 -0.024184918 0.014367688 0.048988525 0.040725354 0.0058791526 0.03861672 -0.043935623 -0.021796037 -0.038583137 -0.021207273 -0.028969062 -0.04965197 0.03508233 0.008046471 -0.00019205734 0.04129919 -0.003555514 -0.034134794 0.022531275 0.028860819 0.005400896 -0.031986464 -0.038718056 0.03585383 0.026899505 -0.045919146 -0.03810252 -0.031451605 0.049801778 -0.029274989 -0.037713207 0.012946989 -0.014705896 0.0020678155 0.032431174 -0.014849018 -0.012545049 0.028575037 0.029354643 0.041721854 -0.024175763 0.03366739 -0.043181717 -0.01742027 -0.01262524 0.037131432 -0.01243142 0.04661305 -0.01520095 -0.012799989 0.023664463 -0.024535274 0.04475573 0.033557627 0.0033389553 -0.009523202 -0.018482078 -0.011841703 0.009092152 -0.0086248405 0.0054443255 -0.006008826 -0.005952753 0.03303628 -0.047768272 0.008066725 -0.01970538 0.028265562 -0.021188771 -0.046400286 -0.014641415 -0.033221472 -0.01731664 0.024526212 0.014218416 -0.03334861 -0.046318866 -0.03378006 0.042959396 0.01492032 -0.007730473 0.048865106 0.044642758 0.049069393 0.03739697 0.026421491 0.046049785 0.029265169 -0.02544626 -0.0068928227 -0.038700126 0.036232438 -0.015246548 -0.008728266 0.0116035715 -0.016136158
speed -0.016284883 0.026327167 -0.023804724 -0.040491592 -0.019840753 -0.045524955 -0.007136725 -0.03217999 -0.042034328 -0.008523501 0.013436403 -0.014185023 -0.014936425 -0.016593538 0.00398276 -0.01265303 -0.011660896 -0.010496199 -0.0027084127 -0.01856494 0.0018302798 -0.047449004 -0.01043234 -0.044202257 -0.038054205 0.022838224 -0.049710035 0.033117924 0.025531832 0.008979142 0.013874482 0.0073555335 0.026834201 -0.0137194395 -0.038948487 0.029194389 -0.026761746 0.03518616 0.026050258 0.04195113 -0.03490635 0.0342038 -0.011185218 -0.034273136 0.047656212 0.008900523 -0.009448934 0.0246354 -0.0033024177 0.0017794855 0.0014373884 0.0060784817 0.004810117 -0.04702288 -0.015099801 0.028549101 0.0036221854 -0.042946663 -0.047623683 -0.033923734 0.0364849 -0.025852669 -0.025673736 -0.036684323 0.025686774 -0.02194655 -0.024939133 -0.0041022412 0.0152364485 0.049617376 -0.0395625 -0.007860266 0.017941605 -0.009568322 0.022247579 0.016499508 0.041242983 -0.030968165 0.03356221 0.0451873 0.030348811 -0.040959097 0.0042841546 0.045611326 0.0032007694 -0.011763085 0.04589704 0.012004387 -0.0032597296 0.0368441 -0.008115411 -0.043282367 -0.013561763 -0.012205005 -0.023882901 -0.0076567903 0.039358947 0.024999227 -0.0020819418 -0.045734335
an -0.027097035 -0.042216517 0.01994839 -0.047680568 -0.009473003 -0.0046363473 0.038605127 -0.027921189 -0.0004419312 -0.010907281 0.03757074 -0.040400267 0.0018402338 -0.02913543 0.018970337 0.0105503425 0.030612182 0.048174728 -0.025881886 -0.043217458 -0.008713819 -0.03937726 0.022971753 -0.017756663 0.035813596 -0.020524288 0.006349195 -0.023302067 0.01934475 0.03607673 0.023455624 0.021239314 0.012175284 -0.04640621 -0.046253037 0.046254527 0.0067702904 -0.0006849542 0.013587963 -0.019442856 0.02350111 -0.013615251 0.030203912 0.03747903 -0.013386715 -0.03445798 0.004479371 -0.009504903 0.006235253 -0.030863358 -0.014944624 0.03689373 0.034463372 0.04498576 0.024848882 0.020062018 -0.02167337 0.032436598 0.039409388 -0.046935834 0.03642485 -0.0050723553 -0.028283274 0.018521596 -0.035722554 -0.023315895 0.01648045 -0.048705768 0.009735275 -0.0037529096 0.031167004 0.0017131679 -0.03986615 -0.02664478 0.00787406 0.017509256 -0.02999084 0.018631939 -0.034385122 -0.032947578 0.045024995 0.013886582 0.037398327 0.013213802 -0.048249293 -0.04994608 -0.02578019 0.04718062 0.03612161 0.021216597 -0.03642732 0.049393784 0.041863892 -0.039628197 0.03393637 -0.020386016 0.0019476525 0.045969296 0.007934283 0.048073176
important 0.038860094 -0.027954007 0.038606096 0.037274037 0.04257976 -0.002570033 -0.04778092 0.042431954 -0.01475234 -0.014749777 0.004099667 -0.0016313791 -0.00032051653 0.021618616 0.012684409 0.019785438 0.031420577 -0.038226128 -0.029331459 -0.03397359 0.038582277 -0.014131714 0.041823115 -0.017206728 -0.0013925433 -0.030306745 0.026919845 0.039843593 0.04665028 0.007431768 -0.043241646 0.019224394 -0.01703038 -0.034657992 -0.043134272 0.017807256 -0.024510503 0.0016918667 0.037696864 0.007481061 0.016506482 -0.025361015 0.026114408 0.026215937 0.046836782 -0.040602885 -0.03327161 -0.044368982 0.02277546 -0.04065106 0.004437469 -0.0033805259 0.014466587 -0.038297664 -0.02206633 0.025859479 -0.0028627887 0.0027837977 0.02865192 0.018655408 0.031615924 -0.008889962 -0.021004451 -0.014336277 -0.03707453 -0.037328195 -0.03361485 0.023298834 0.0125567205 -0.012792267 -0.000654079 -0.012992464 0.04805744 0.009381343 -0.03263531 -0.009004593 -0.023452938 0.03560785 -0.042951763 -0.047855534 0.03967234 0.028009403 -0.015540957 -0.027686311 0.029674795 0.0027296767 -0.047992315 -0.031576157 -0.013091136 -0.0014816038 -0.027125372 -0.019768596 0.048364963 -0.024774957 -0.04611292 -0.011903655 -0.0446542 0.027741704 -0.010966279 -0.038037755
point -0.012206934 0.035023976 0.0031244867 -0.021630133 -0.026766002 0.025898661 0.015839133 -0.02780435 0.008117415 0.009318221 -0.04272926 -0.027808214 0.0045910105 -0.038586617 -0.017573167 0.004765272 -0.008603215 -0.0019234307 -0.042513337 -0.02106731 -0.03232031 -0.012016047 -0.042848278 -0.013224624 0.027617801 -0.014492117 0.04546163 0.016594838 -0.048667323 0.009438921 -0.022743022 0.0052384958 0.0325091 -0.045322657 0.022272136 -0.012269296 0.0132950805 -0.015752636 0.04042801 -0.004732717 -0.021066893 0.030689966 -0.022634197 -0.004318215 -0.0110059865 -0.01353576 -0.04961885 -0.014327835 -0.04758216 -0.01792233 0.019104842 -0.033138454 -0.013296772 -0.049042013 -0.016473867 0.038069177 0.030006561 0.040349785 0.003281176 -0.0037525892 0.010954034 0.033942234 -0.0025023222 -0.020160748 -0.026050746 -0.0141836405 0.028731313 -0.021119976 -0.025020672 0.0371317 0.006242443 -0.018122457 0.04001752 0.047893297 -0.019916499 -5.275011e-05 -0.027019894 0.035155628 0.046114635 -0.016086161 0.02367885 0.043917026 0.033802066 -0.04273958 0.0111764185 0.0142847635 0.0145464875 -0.04667145 0.03686944 0.025235359 -0.03167577 -0.0016771331 0.03938544 0.046057414 -0.04934485 0.025950167 -0.026062561 0.022664715 0.020899784 -0.003922619
difference 0.027696792 -0.037497185 0.007134296 0.008946836 0.013379846 0.0004251115 0.027162734 0.03412572 0.017199766 0.023616899 -0.0075553656 0.041363787 -0.038975704 -0.013950288 -0.024753321 0.037687507 -0.014385559 -0.024164487 -0.021107053 0.046785925 0.008907665 -0.007813491 0.047604512 0.021238152 0.021379199 -0.027101075 0.015625704 -0.037313413 -0.029369473 -0.02528639 -0.0088825 -0.032095194 0.0494725 0.00504886 -0.018086217 0.0075832494 0.0084042065 -0.023680473 -0.01134168 -0.030056966 0.028268825 -0.040979587 -0.049211312 0.01568928 -0.038701355 0.014830556 0.037033867 -0.005733203 -0.045048464 0.031712417 0.030308653 -0.047525417 -0.0074045174 0.048715863 0.02517325 0.0078834295 -0.018384088 0.023160245 0.005982805 0.04977152 0.01712526 -0.0005123019 0.022417273 -0.0017503724 0.019883249 0.041100886 -0.007481359 0.00070850924 0.02823044 0.032045964 -0.0031321757 -0.013158571 -0.030918563 -0.02976122 0.026768316 -0.017036747 -0.026085675 0.025947202 -0.035668947 -0.027225018 0.022952404 0.026979748 -0.006561041 0.010185491 -0.009230077 -0.0059638508 0.031556237 0.03409424 -0.020488178 0.03441267 0.04369471 -0.0046669357 -0.029787911 0.04978976 -0.048009288 -0.009280872 0.019896213 -0.03138566 0.0266569 0.04344603
two -0.027717018 0.0097930655 -0.046148803 -0.0310802 0.011296965 0.010426711 -0.013191126 0.01280525 0.0030616634 0.035365414 -0.040632628 -0.0007319562 0.03899547 -0.048982393 0.018679526 -0.026854623 0.016798224 0.000926543 0.037249748 -0.031528734 0.003572084 -0.018907083 0.018561188 -0.03796643 0.006773699 -0.049009323 -0.037249673 0.022826198 -0.013939094 -0.029887987 0.0108552575 0.010424424 -0.002975475 0.029823449 0.022508059 0.013184581 -0.046210386 -0.046296347 -0.005546879 0.03662381 -0.03250848 -0.032434523 -0.022974253 0.017461967 0.023452822 -0.046206962 0.00057255104 0.028823223 0.048110235 -0.009760857 0.0010084026 -0.04761162 -0.025829231 0.043297146 -0.014827788 0.0115996 -0.016833365 0.034776416 0.0011410937 0.0013014451 0.04408412 0.019188408 -0.04887264 0.026849214 0.022695731 0.0037877075 0.01253951 0.024055567 -0.018729877 0.0066974536 0.035015438 0.028482307 0.0376649 0.013955679 0.0025497898 0.012714293 -0.041986644 -0.021940876 -0.018769145 0.0022907034 -0.006474197 0.02468473 -0.02284342 -0.022278178 0.015639435 0.0018203743 0.02057964 0.02242433 -0.001609303 0.047928486 0.04774176 -0.040635966 -0.009411775 0.032746147 0.021194544 0.044713844 0.02900472 -0.04447774 -0.0068732016 -0.039595462
has 0.023041878 0.045811962 -0.027393688 0.009652663 -0.012050569 -0.047664165 -0.008529484 0.017611746 -0.0071223006 -0.0085203275 -0.0047391877 -0.033481732 -0.028053476 -0.028024828 0.026152704 0.009466063 0.031937186 0.027702603 0.0073897354 0.023371171 -0.034019887 -0.043663837 -0.017066944 -0.02131554 0.027204957 0.0052452907 -0.04933473 -0.045419395 -0.0034144297 -0.012075819 -0.030071044 0.009788942 -0.0054327734 0.037505064 -0.030128097 -0.04738448 0.0051686876 0.028571095 0.044448044 0.033473108 -0.042177152 0.04833803 0.015600037 -0.048704255 0.049931232 0.044463564 0.034954283 0.03688382 -0.017078698 -0.02268343 -0.018608619 0.004845001 -0.049529005 0.04726323 0.027209964 -0.026104284 0.044489745 0.03283267 0.028310243 0.04011322 -0.04729384 0.00026820973 -0.016482662 -0.030330015 0.035270322 -0.047277965 -0.041294873 -0.010880448 0.014300156 0.010071099 -0.0055735596 -0.0010432117 -0.008342791 0.006040942 -0.033667862 0.03335445 0.03244305 -0.019810284 -0.008253407 0.02584133 -0.038994096 -0.024564242 -0.009486221 0.038306866 0.042665306 0.03377774 0.008188345 0.04894093 -0.0021120533 -0.031204164 0.009856414 0.03855438 0.04078981 -0.032389842 0.008639444 -0.00894643 -0.011121117 0.04351146 0.022657167 0.015504453
median -0.01474626 -0.048880246 -0.0281196 -0.04970417 -0.007176496 -0.03380765 -0.042132735 0.009563424 0.004013799 -0.044636607 -0.037183773 0.016156565 -0.03093797 0.04479594 -0.041748486 -0.04541148 0.018001985 0.03872544 0.015010405 -0.020339025 0.04075866 -0.007155467 -0.04380783 0.047825668 -0.023226762 0.043004993 -0.020992745 -0.03582827 0.015517864 -0.010734975 0.048553016 -0.04169371 -0.015615225 0.037274208 0.014024023 -0.0133763775 -0.014409054 -0.005250372 0.023254003 0.020343732 0.021800425 0.044276346 -0.005867351 0.027563345 0.029399898 -0.04913311 0.004687071 0.025874149 -0.0005046353 -0.019155039 -0.02487054 -0.01701479 0.012654964 0.040327694 0.04901879 0.022773255 -0.0038508065 0.046401743 0.009286962 0.04978678 -0.03964349 0.014079336 -0.045541298 -0.009353947 -0.0066742077 0.0066853166 0.04170983 -0.0057662614 -0.027897775 -0.0042701736 0.024216045 0.02459767 0.006275676 0.019937303 -0.02958616 0.04455905 0.004193198 0.02081946 0.048851464 0.037206713 0.040008787 -0.020822048 -0.011904132 -0.011434354 -0.026607847 -0.033583835 -0.0265697 -0.018206228 0.045409095 0.032672953 -0.0018556938 0.0314317 -0.036557414 0.02319349 -0.03126055 -0.019220699 -0.017414033 -0.045695495 -0.048137795 0.006536223
incubation 0.04583173 0.028373156 -0.041066803 -0.049155366 0.012798358 0.013149623 0.023597602 -0.002746366 0.0046126246 0.008062385 -0.022127772 0.010859586 -0.00068056583 -0.020992517 0.022713449 0.017620768 0.0073973536 -0.032338582 -0.0029226653 -0.007063031 -0.022183968 0.01054902 0.031529058 0.013119195 -0.026312172 0.018913459 0.003918659 9.2960894e-05 -0.047984567 0.047624815 0.021062199 -0.032031514 0.023622084 0.007586777 0.02802248 -0.040806044 -0.049984645 0.020068858 -0.017088521 0.013289008 -0.041536342 0.022341918 0.03352053 0.02250253 0.046639923 0.0039148107 0.014974657 0.020911302 0.012079369 0.01499014 0.04771873 -0.008606471 0.005727075 0.012244951 -0.006578982 0.027107868 0.043349016 -0.032488167 -0.045838274 -0.00389551 0.021915939 0.008826792 0.0002730973 0.010406531 0.029374447 -0.026589096 0.04459585 -0.038289405 -0.028192258 -0.021513045 -0.03362422 0.034869198 0.032897595 0.031433772 0.024462108 0.019598965 -0.023255026 -0.015918124 -0.016170502 -0.0013252124 0.030337993 -0.0471856 -0.020829845 0.0003007427 0.00924002 0.028529715 -0.046837773 -0.02559979 0.00888164 -0.015684616 -0.043046262 -0.027366579 0.049751285 0.006219685 -0.045244303 0.03897423 -0.04771433 0.014876667 -0.033680238 -0.027843619
period 0.042772207 0.034229647 0.009556435 0.014395658 0.008949898 0.043130327 0.013451163 -0.02622329 -0.048169672 -0.031137217 -0.02306633 -0.0071936734 0.028212022 -0.020465076 0.0033827908 0.029391933 -0.010054063 -0.028150572 0.018007386 0.029355 -0.04349432 -0.0022639409 0.009087931 -0.008186817 0.02261949 0.019702103 0.0010632165 -0.028874934 -0.02511108 -0.048009064 0.008344125 0.007686734 0.0041426644 0.017715964 -0.010562014 -0.040149402 -0.006333936 -0.044824626 0.0130725615 -0.021728385 -0.030899167 -0.031304218 -0.011692464 -0.018790936 0.007697236 0.006668091 -0.027649093 -0.035219334 0.031239871 0.024867143 0.0403415 0.007785391 -0.004997026 -0.04177581 -0.0019492507 -0.0053218715 0.036544506 0.02929492 0.01356465 0.009032346 -0.041797508 0.030058336 0.03546563 0.023614023 -0.026308848 -0.013410591 0.04890312 -0.000530459 -0.04904926 -0.02132932 0.048770692 -0.040636204 -0.039174177 -0.019789541 -0.008627079 0.028188195 -0.03172244 -0.04842731 0.006949447 -0.0020137206 0.00395409 0.006745208 0.032747876 0.032385256 -0.0224957 0.0071679354 -0.0011852495 0.017396126 0.02269775 0.031457815 -0.018056333 0.04111203 -0.005514551 -0.03077823 -0.02648951 -0.015484583 -0.005172454 -0.047504988 -0.037134685 -0.021753812
infection 0.035855617 0.045999456 -0.034304906 0.01073451 -0.011633657 0.042625133 0.042317 0.048638914 4.643202e-05 -0.017610181 -0.045567013 -0.047140896 -0.046852566 -0.036194813 -0.018548857 0.044819843 0.04957659 0.02237581 0.025097478 -0.0013238564 -0.019270563 0.031899307 0.021397438 0.0043915138 0.018827353 0.042703304 0.04026698 -0.0382844 0.045341793 -0.024127102 -0.04454261 -0.023250688 -0.027346635 0.02659459 0.026785139 0.017375533 0.0010694154 0.0033244267 0.0011857972 0.019903842 0.022674922 0.005658366 0.028459419 -0.021090984 -0.00404948 0.0011482239 0.024433408 -0.04878793 0.026408482 -0.01640892 -0.029271305 -0.048727002 -0.006526839 -0.038193904 0.008598208 -0.0077920184 0.040099386 0.021916483 0.027002577 0.033827532 0.008587003 -0.0415437 -0.039674055 -0.025914181 0.02218822 0.042552922 -0.041820787 -0.005199086 -0.032274507 0.00039714575 -0.0013189912 0.040099625 0.015682641 0.044832718 0.011324644 -0.02788924 -0.021613372 0.00712955 0.010492407 0.026485447 0.009254597 -0.02137413 -0.046270754 0.0042684786 0.019965243 0.012789261 -0.03193723 -0.00617354 -0.0035574324 -0.03589052 0.007009197 -0.00070705265 -0.009601474 -0.044324137 -0.016037345 -0.0019521117 0.029779065 -0.017337572 0.03808104 -0.044737246
successive 0.010547601 0.015925754 -0.04071995 0.04913864 0.049778614 -0.0028550997 -0.01196437 0.009510826 0.032956887 0.03609841 -0.04270717 0.043147627 0.036939714 -0.04911541 0.0035359748 -0.0440104 -0.012701012 0.014592577 -0.01920936 0.020749722 -0.026315749 0.017941657 0.040372644 0.04033995 0.010036159 0.022816967 0.015137497 0.010923933 -0.01179564 0.0029282682 0.01884183 0.025212709 -0.025483608 0.022942748 -0.02642088 -0.005140662 0.00093008205 0.02140129 -0.0493098 -0.016372275 -0.03664311 0.025894213 0.024108257 -0.018903613 -0.034396112 -0.026690114 0.03384218 0.044444 0.02431101 -0.035955835 0.024122324 -0.022699034 0.025320616 -0.024707485 -0.02053243 0.012338959 -0.04282106 0.020320479 0.041732434 -0.031211032 -0.040935732 -0.03549416 0.026933875 0.005191099 0.03400227 -0.0074056387 -0.014059544 -0.0030676834 0.029255915 -0.0411623 -0.00012503937 -0.02154472 -0.006910693 0.030491602 0.02770308 -0.006959129 0.035479378 0.028432082 0.033957373 0.002909124 0.035153914 0.036908876 0.03586868 -0.01333008 0.022809211 0.029673431 0.043396678 -0.02159046 0.042437207 0.03916521 -0.048179854 -0.028696073 -0.021256912 -0.03106966 -0.016757369 0.013608579 0.02985723 0.04308727 -0.03930055 0.0007449165
cases -0.033837415 0.01932707 0.009150635 -0.023900509 -0.027237285 0.0497139 -0.035952378 -0.040677357 -0.009278931 0.040809575 -0.0281914 3.5036355e-05 0.037201095 -0.022208048 0.033964824 -0.030426681 -0.02723713 -0.00048337132 -0.0022342205 0.029073779 -0.00860884 -0.006217122 6.7949295e-05 0.0100726 -0.029827405 0.038317334 -0.009736337 0.043004464 0.0050253756 0.023828436 0.0060252063 -0.031318225 -0.042723514 -0.037913132 -0.0054574497 0.021373477 0.023132648 0.018445935 0.017073538 -0.03610413 0.043912534 -0.011751808 -0.038484406 0.023883615 0.024120782 0.03836384 -0.0275267 -0.038740277 -0.012309026 0.002302289 0.0036721118 0.043152634 0.012646627 0.039491165 0.029536996 -0.04445454 0.023399796 -0.014989354 -0.026022756 -0.026955819 -0.014344372 0.03305677 -0.024905968 0.02288362 -0.02941451 0.049056236 -0.048339497 -0.010113705 0.027730394 -0.0202631 -0.010651134 0.002095092 0.046532158 0.02090751 -0.017947208 0.04701717 0.039910007 -0.0031093732 0.021496858 0.023134436 -0.047596622 0.043249395 -0.043103077 -0.041976295 0.033974018 0.045338992 -0.028064955 0.014803294 -0.027792811 0.014604535 0.031193208 0.044827078 -0.02622819 0.046519075 -0.024166537 0.0067252517 0.0091256015 0.018609036 0.003467463 -0.022647822
estimated 0.013892237 -0.0013513081 -0.049721252 0.03783789 0.030286085 0.036546003 -0.033553816 0.005949568 -0.019909669 0.033228185 -0.025485635 0.049963538 -0.030529667 -0.042028725 -0.045171272 0.047897305 0.04587325 0.04902294 0.043488506 -0.0092448 -0.0012573116 0.0055123456 0.0069972873 0.047257993 -0.04274237 0.013685059 0.014509056 0.0072487816 0.016269397 0.03973918 -0.014907431 -0.02447672 0.02088577 -0.02563485 -0.004488241 0.020738553 0.010257818 0.02060676 0.0037976503 0.0011417158 -0.031985298 -0.005407572 0.04777291 0.03896003 0.0114864 0.014930788 -0.021656204 -0.022501541 -0.03561133 -0.033722654 0.036129657 0.04394163 -0.048572708 -0.025094355 -0.0106598735 -0.043400634 0.005206477 -0.013971947 0.025333192 -0.018148053 -0.029925967 0.0061206333 0.018188145 0.0021988638 -0.022260655 0.016229484 -0.04490861 -0.048230182 0.047694433 -0.00023406744 0.0018908978 -0.00023156404 -0.023369445 -0.00084181875 -0.024713267 -0.041286565 -0.047028672 0.03835256 -0.046465468 1.4789402e-06 -0.044171132 0.028638925 -0.039160788 -0.0072245114 0.036713768 0.007916819 0.029130887 -0.04537039 0.01992904 0.032744836 0.037417557 -0.036656283 -0.04477179 -0.019551445 0.0010414608 -0.03030218 0.033484805 -0.020407557 0.0007887855 0.04753462
6 -0.010327768 -0.036181092 -0.01164199 -0.027851963 -0.039817117 -0.034742653 -0.012063064 0.022409704 0.028037284 -0.04783466 -0.0060739517 -0.029106844 0.049605694 0.0006002076 -0.022952223 -0.04998373 0.0054818615 -0.02127241 0.035258446 0.042674292 -0.026788319 -0.005782366 -0.012336124 0.04776186 -0.04910885 -0.044590164 0.028426554 -0.035611235 0.0038531795 0.025273133 -0.0062920675 0.029529024 0.0011321306 -0.014044236 -0.008566309 0.040688526 0.011262856 0.011068083 -0.03211297 -0.03283446 0.040589776 0.0330402 -0.049982715 -0.046138465 0.02843294 -0.018840982 0.042374123 -0.02441001 -0.0018909946 0.02488966 -0.017043184 -0.04918158 -0.0056494474 0.04811618 -0.04404811 -0.025577033 0.02525362 0.03839976 -0.026481116 -0.03274498 -0.028199865 0.0029917583 0.04864211 -0.022992123 -0.039505444 -0.0071391948 -0.0387311 0.026623394 0.024798777 -0.032171585 0.029692974 -0.044142164 -0.0005590804 -0.015411697 -0.03096503 0.02690028 -0.013022207 -0.03793174 -0.019071376 -0.025001336 0.013830174 0.0365937 -0.034128487 0.042421605 -0.030360794 -0.038986683 -0.018785764 0.0034355633 0.039703462 -0.018689372 -0.04640423 0.047732983 -0.03837471 0.023827914 -0.045816194 -0.03182999 0.045594003 -0.0047571287 0.022896659 0.02510262
means 0.04446416 0.048161928 -0.023418773 0.027452122 -0.01805687 0.016024556 -0.010266624 -0.012485839 -0.043760657 0.01797739 -0.01678846 0.036436055 0.005546581 -0.03904543 0.0047150366 -0.028632903 -0.04150225 -0.013721071 -0.03215573 0.049230788 -0.007018078 -0.034370888 0.04996139 -0.021566749 0.013035264 -0.01092409 0.018416833 0.0006377697 -0.028860915 -0.008379329 0.003740035 0.0012642518 -0.012775756 -0.016819037 0.015286956 0.049754586 -0.014228798 0.04729775 -0.037682425 -0.012288798 -0.04321302 -0.04583949 0.013320636 0.022387695 -0.026144957 0.043808285 -0.03397566 0.026765157 -0.005235292 -0.031420432 0.008684825 -0.018914033 0.003047943 0.020458806 0.03671411 0.037061583 -0.018910004 -0.027600348 -0.04190568 -0.009967197 0.025494564 0.017830338 -0.026324809 0.013252113 -0.044788506 0.029013071 -0.0077564605 0.036810767 0.011350464 0.013517011 0.011782695 -0.043745603 0.034998443 -0.02048782 0.01543032 0.04509641 0.029912878 0.0004810691 -0.030746484 -0.0129819885 0.02844927 0.016085912 -0.0016690716 0.049038243 0.046499614 0.015695874 -0.0014907233 -0.035992302 -0.0026158914 0.01730467 0.0062991604 -0.03928379 -0.009060193 0.049421813 0.012293182 -0.018418204 0.039234605 0.0015218258 -0.02270863 0.034733128
spread 0.040348176 -0.008118451 -0.009235501 0.011022784 -0.011530936 -0.009065259 -0.0042669773 -0.0054758415 0.021614943 0.005786501 0.01635727 0.012752067 0.023931686 -0.008618675 -0.011424921 -0.013818622 0.031303618 0.02440038 0.03430796 0.01758175 -0.018957186 -0.035727702 -0.013375472 0.012431156 0.0024988167 -0.048883118 -0.023659432 0.022539522 0.035721723 -0.009594835 -0.04096662 0.020458568 -0.0062702186 -0.02141552 0.0073130354 0.00986024 -0.006243933 -0.045889962 -0.008685708 -0.008521818 -0.01652944 0.041170362 0.041231308 0.048552636 -0.048943605 0.020670544 -0.028813113 -0.03038844 -0.038468204 -0.014288139 0.030110609 0.002109874 0.007321894 -0.032575823 -0.021245003 0.024238769 -0.022939349 0.041147184 0.015942577 0.00947224 -0.04317225 -0.021299005 0.020104114 -0.0036212802 0.04521415 -0.03825749 -0.0406129 -0.009403132 0.03762133 0.023032095 0.041015696 0.013013054 0.036921833 -0.014298033 -0.039575875 0.021049093 -0.020297123 0.034081724 0.041706573 -0.0104506835 0.0050182454 0.0030011423 0.037905764 0.034296956 -0.015310239 -0.04406437 -0.013388276 0.048480753 0.046858873 0.014369894 0.018116627 -0.040283166 -0.019383395 0.047846366 -0.041761506 0.020427916 0.04227927 -0.026928378 0.011472963 -0.026981069
faster -0.008000087 -0.049649037 0.048175696 0.041124497 -0.03207828 0.012009073 -0.013687231 0.007711541 -0.04941349 0.018792775 0.034955394 -0.010206271 0.035869863 -0.0025060996 -0.030469775 -0.007865656 0.047877345 -0.03598268 0.04133797 0.045215894 0.04128797 -0.014009915 0.03724822 0.008451641 -0.030490482 0.045351896 -0.003308855 0.0317494 0.035444368 -0.01439612 -0.02799425 0.003840126 -0.011374462 0.024849106 -0.02682737 0.017754469 -0.017649688 0.017007437 0.006950833 -0.0046102516 0.0011717789 0.012791004 0.027549092 -0.00923612 0.04632887 -0.043249406 0.018755112 -0.04073907 -0.029242326 0.043880466 0.006143905 -0.049215782 0.023988258 -0.0003121011 -0.036586404 -0.049752604 0.037976716 0.044936392 0.04880171 -0.0057077035 -0.028219676 -0.0017838478 0.020647828 0.046313915 0.015836868 -0.030249013 0.009158004 -0.024607396 -0.014377594 -0.025947392 -0.036987532 -0.011977207 -0.030270696 -0.029092623 0.035684217 -0.041870773 0.0037281625 0.029175613 -0.002408564 -0.037046302 0.02395996 0.034010183 -0.047944393 -0.022595072 0.017528404 -0.049960066 -0.018185675 -0.023209417 -0.034022678 -0.023812925 0.027775232 -0.021700716 0.045138802 -0.015410174 -0.006997861 0.03214634 0.006111942 0.023478378 0.038559053 0.019168142
further 0.0024255738 0.018257465 0.0034450889 -0.0072712526 0.039229456 0.009398401 -0.005253982 -0.015836991 0.009673905 -0.011639964 0.0050278306 -0.045787252 -0.021504914 0.03883766 -0.011661183 0.0488596 0.03558146 -0.021698846 0.039756406 0.0300568 0.010716546 0.023449425 0.018893186 0.020648185 0.03857999 0.0137154125 -0.033984266 -0.022036958 -0.04995792 0.007848691 -0.03590838 -0.047462046 0.008344911 0.011327982 -0.012167264 0.0055669323 -0.023696888 -0.043204 0.017930817 -0.023171842 0.0149878 -0.012085974 -0.005183708 -0.008585811 -0.028598582 0.030567024 -0.047784723 -0.017508924 -0.026234305 -0.048488557 -0.0025969148 -0.036896992 0.00039918348 -0.04155066 0.036319744 -0.040392615 -0.029643213 0.00490018 -0.030195082 -0.018264662 -0.005110167 0.023426581 -0.0003923662 0.038378026 0.04245693 0.0034131035 -0.049679745 0.010490157 -0.02731644 0.03539281 -0.007198252 -0.026328493 0.007735323 0.033003356 0.004947923 0.04936664 -0.03812573 0.014004257 0.03288812 0.027648356 0.011867095 -0.008387722 0.025191057 -0.020364333 0.024730112 0.014431026 -0.024931252 -0.013295542 0.006683659 -0.020911707 0.028722335 -0.041341078 0.008508645 -0.040356267 0.040041555 -0.023769487 0.040075365 0.04340167 -0.034964778 0.008656122
first 0.03382924 0.048314903 0.030587915 0.033048417 -0.00048037618 -0.042604722 0.03846177 -0.025521828 0.03654411 0.0075677633 -0.034449626 -0.010377251 -0.044084 -0.020531405 0.017898683 0.044769455 0.041698728 -0.03258194 0.04208331 -0.012433983 0.025138263 0.03783301 -0.0155393705 0.020369682 0.024447177 -0.034578253 0.01650944 -0.04303178 0.045281682 -0.004056871 -0.018851245 0.00037386268 -0.011546183 0.030383375 -0.0474012 -0.016826011 0.028604243 0.015139651 0.031289842 0.0017864108 -0.022124147 -0.0067297444 -0.034727238 0.022371683 -0.030717684 0.029040705 0.03867134 -0.026485085 0.0029624104 0.012400351 -0.0102809295 -0.037955143 0.03643122 0.039069083 -0.044531908 -0.047358777 -0.04629716 -0.049643278 -0.028115286 -0.033795774 0.01948743 0.047509465 -0.043598354 0.04846588 -0.008800112 -0.0422194 -0.009056903 -0.01117456 -0.007068109 0.03632948 -0.027754938 -0.03653135 -0.02530315 -0.021331644 -0.023426771 0.01865891 -0.00043326616 -0.034510054 -0.032534707 -0.0075244904 0.037930313 0.037949625 -0.014322899 -0.020282269 -0.011240136 0.03954274 0.016921427 0.047300193 0.015994731 0.049534608 -0.0031678453 0.04430895 0.01902857 -0.031461038 -0.039538063 -0.0366598 -0.03463719 -0.03430017 0.018434945 0.043211136
illness -0.04741743 0.017486963 -0.0061017647 0.011480711 -0.033271432 0.008641362 0.025275972 -0.035631694 -0.043251704 0.035209183 0.03794643 -0.013125587 0.02681936 -0.011640679 0.044621516 0.00031082705 0.048762526 0.037113074 -0.046199728 0.000576783 -0.03163606 0.021703515 0.0126819275 0.024995241 -0.025046552 0.017116178 0.03320274 0.02706727 0.012172211 0.042695057 0.045091126 -0.04911269 -0.018593263 0.03727099 -0.012881946 -0.019950677 -0.047839593 0.015719738 -0.022925545 -0.029150998 -0.039679505 -0.02323097 -0.03569732 0.01793689 -0.04230336 -0.002270557 0.032488596 -0.034191072 0.028555188 -0.006492354 0.019391779 0.02916671 -0.04599749 -0.025730897 -0.04038211 -0.022307897 0.04317634 0.018528942 -0.025186872 0.04391822 -0.020279026 0.021785203 -0.0062999725 -0.038888194 -0.0013412721 -0.031591106 0.013431046 -0.04580548 -6.645918e-05 0.034366976 -0.022174 -0.046935298 0.0049387217 -0.04958426 0.032535385 -0.045394327 -0.044878233 0.022883479 -0.017803479 0.025279824 -0.040540505 0.016565267 0.018530514 -0.041048814 -0.01369065 0.031925473 -0.028547501 0.009961925 -0.0010307431 0.018458579 0.03674135 -0.019399941 0.02175938 -0.042572346 0.028042804 0.0008657947 0.017455604 -0.028557897 0.040402923 0.022219483
or 0.005124606 0.017937217 0.034865703 0.02549025 0.012381472 -0.040777706 0.005673647 0.042029824 -0.037470795 -0.01195804 -0.037899744 0.020126197 -0.03051579 -0.029999256 -0.003171742 -0.024406934 -0.044487406 0.007978059 -0.043160617 0.048107076 -0.041400444 -0.02257507 0.01284847 0.043541435 -0.009374142 -0.018627487 -0.0232283 -0.035374723 0.042123925 0.03913269 -0.04498365 -0.023524046 -0.03259965 0.014234733 -0.03153633 0.009333324 -0.047252633 -0.0027726293 -0.0268317 -0.023049785 0.037286665 -0.047741663 0.035907988 0.011934616 -0.049424183 -0.049856376 0.0032955185 -0.014567077 0.017088506 -0.0074232593 -0.0396569 0.03038739 -0.020766163 -0.0039809234 -0.019156385 -0.04608314 0.041624915 0.042590763 -0.019039238 -0.036397636 -0.020427966 0.04710457 0.007848572 -0.030889237 -0.013159882 0.00065755844 0.017189432 -0.007334806 0.03594706 0.039465312 -0.03349159 -0.04472034 -0.008587383 -0.04729253 -0.011295974 -0.04495747 0.04880793 0.048542988 -0.043494858 0.04708184 -0.019400382 -0.04792414 -0.017377697 0.008699633 -0.0011562929 0.013814453 -0.030834485 0.028699908 -0.027493333 0.002985347 -0.017611027 0.024038557 -0.013905834 -0.03993678 0.017856691 0.003460873 0.0442742 0.039553788 0.044213068 0.038393687
potentially 0.04808363 -0.027629042 0.034151796 -0.02324965 0.036128465 -0.024575938 0.02124447 0.036447775 -0.03615446 0.015068058 -0.034149695 -0.022397721 0.039807823 -0.03264624 -0.044302907 -0.028746856 0.047473144 -0.017411374 -0.041280687 0.00022585317 -0.03662057 -0.03581945 -0.039902974 0.014452729 0.011031665 0.015805375 0.02976868 -0.04281622 -0.0125461 0.003698267 -0.014763486 -0.002009105 0.04895245 0.0028215162 -0.0117533915 0.018843774 0.018198062 0.037910607 0.002914928 0.012571406 -0.022140205 -0.04278139 -0.04568645 -0.0227152 0.017145518 -0.031833805 0.023956452 -0.021920955 -0.023719514 0.019442473 -0.041120447 -0.0055282824 -0.045384705 0.04072747 -0.01478672 0.02810147 0.033941094 0.004209768 -0.006515395 0.008303225 -0.019519377 0.0001324527 0.009922959 -0.01927352 -0.0128285065 -0.01823337 -0.025391018 0.007318832 0.01712108 0.02884313 0.033987377 0.019310761 0.028177332 0.005444251 -0.009475805 -0.011165999 0.021777246 -0.046126604 -0.04156555 0.025915693 -0.024244988 -0.04486822 0.04728696 -0.030018104 0.049430024 0.013027515 -0.024790406 0.0054196008 0.02869996 -0.029287888 0.026671473 -0.006910108 0.0051872246 0.023086872 -0.010021664 0.04881287 -0.018611394 0.037302483 0.010823108 0.03634571
pre -0.029877448 -0.018087875 0.044357803 -0.017019022 0.022325192 0.021301959 0.03455856 0.006770123 0.015489016 0.0011641756 0.04898275 0.02766044 -0.010082364 -0.047724403 -0.00537207 -0.009400867 0.029110935 -0.026152158 -0.049505662 0.02215005 -0.044659175 0.020341586 -0.011543311 0.0075381994 -0.030261373 -0.03136914 0.04867648 -0.04973307 -0.037498675 -0.0018091425 -0.010498632 -0.029493345 0.009018324 -0.03384252 -0.0056582466 0.019756082 0.005053103 -0.042089842 -0.005027771 -0.047613382 0.014467869 -0.03325366 -0.021229196 -0.0063843355 -0.024293387 0.013085198 -0.013624392 -0.019567585 0.013179157 -0.046592284 0.04272001 0.04300827 0.044028353 0.005741764 -0.040468514 -0.047398876 0.00127808 -0.02168262 -0.020069683 0.028762888 0.048737634 0.020718183 0.04795449 -0.019872654 0.005545914 0.030530993 -0.026968658 0.026016366 0.04284681 -0.04904784 -0.00880314 -0.0038511865 0.0044805184 0.031477217 -0.0039567947 0.032553997 0.038744573 -0.006226741 0.048516225 -0.035608627 -0.0030102618 -0.04378251 -0.009116553 -0.038709067 0.033859145 -0.0029274002 -0.030637205 0.032646623 0.031068634 0.02912337 0.022741009 0.006007027 -0.01520481 0.040404294 0.0024215356 0.019059245 0.006834723 0.044382427 -0.0003479123 -0.041797042
symptomatic 0.000650309 -0.044082057 -0.04819676 -0.03109659 -0.00690626 -0.009371031 0.0012259968 0.029233601 0.02505115 -0.046261143 -0.010106705 0.032100085 0.014109086 -0.044169724 -0.030461801 -0.044105377 0.025862787 -0.048160125 -0.0473647 -0.04535228 0.009895969 -0.040069163 0.0024884231 0.001060091 0.04937235 -0.018106759 0.0037228577 3.511831e-05 0.0049876943 -0.03422754 0.014908124 -0.04243164 0.0059530362 0.013740923 0.01148089 0.02499349 -0.03976065 -0.01539626 0.013576094 0.038942542 -0.019776559 -0.049854945 -0.0069285855 0.047025215 0.033454407 0.03773724 -0.04171294 -0.020480622 0.035892878 -0.049878728 0.03920908 -0.048261333 -0.03605225 0.039311018 -0.023079395 0.00027830526 -0.03140366 -0.017274119 0.016306963 0.039316285 -0.043727804 -0.0015040264 -0.017738283 0.049850557 0.010065734 -0.020177556 0.037540305 0.040640328 -0.006656695 0.029962387 -0.0084571615 -0.010510959 -0.025185049 -0.004456997 -0.009504475 -0.044627238 0.01835512 0.03489596 0.034834873 0.0126014985 -0.041748405 -0.013702847 -0.033551455 -0.0395995 -0.003839504 0.03619187 0.03656104 0.021969344 -0.02027911 -0.03646616 0.02724785 -0.008886982 0.031687308 -0.045416284 0.0055838116 -0.03000313 0.035641674 0.047590043 0.0035711303 -0.036843766
–transmission -0.040690698 0.022269 0.02914789 -0.03283324 -0.006177079 -0.048092104 -0.03352803 0.0010289773 0.012619738 0.038662497 -0.018924236 -0.044180263 0.049647998 0.029394839 -0.048049103 0.013027992 -0.032789588 0.012262952 -0.04329672 -0.02357378 -0.028645122 0.03757531 -0.0247844 -0.0037092678 0.015397016 -0.03684906 -0.027816236 -0.012433339 0.009468935 -0.021692742 0.028816354 0.008230567 -0.002673328 -0.04213761 -0.0048083775 0.030588735 0.04224502 -0.015706219 -0.04548452 0.023890052 0.036711168 -0.007978298 -0.008147515 0.04845481 -0.04204775 0.021985535 -0.004031945 0.0066579804 -0.043863595 -0.016933072 0.0210209 -0.043818522 0.042576637 -0.04447005 -0.03371854 0.040989164 0.048938755 0.029053736 0.03765 -0.029475033 0.020129215 -0.02582339 0.0021301284 -0.0055011287 -0.028519249 -0.04531852 -0.022649288 -0.022727132 -0.0009356253 0.036096994 -0.04075538 -0.014327787 -0.020997345 0.03668673 0.026926886 0.047101583 -0.020994687 -0.03037299 -0.026069844 0.017194677 -0.0071553215 0.049775753 -0.025018096 -0.033524454 0.01570573 0.02394608 0.03874209 0.04132403 0.048747826 -0.017746307 0.008364759 -0.041469358 0.01968271 -0.0020913258 0.02960335 -0.025846899 -0.0032891743 0.0331179 -0.0014598593 -0.02581054
before 0.02331778 0.025147844 0.01911373 0.0057794824 0.042050246 -0.026581097 0.008015703 0.00882908 -0.0066563115 0.020400915 -0.019195413 -0.0342805 -0.044461872 0.0045249574 0.02506027 0.01972865 0.028333101 0.014300827 -0.009500086 -0.007879842 0.030892003 -0.026309192 -0.0055133104 0.0069323666 0.032912824 0.0070613027 -0.03687223 0.037632715 -0.01968056 0.0070091486 0.021283831 0.009679116 0.009301472 0.024507586 -0.048327316 -0.043507267 0.0377453 0.010732092 0.035155084 0.003399074 0.040491607 -0.038806222 0.030060414 0.004390262 -0.012919068 0.046936 -0.04078331 -0.021903252 0.012603354 -0.019398188 -0.015908815 0.012601268 0.040241625 -0.022988463 0.0037458427 -0.02230444 0.03751156 -0.014597297 -0.017446376 0.041592944 -0.013753366 -0.002181314 -0.010035254 -0.008404411 -0.030351115 -0.012025941 -0.011010684 0.016365979 -0.008671522 -0.026830351 -0.028430557 0.043376956 0.028501932 -0.01864506 0.013263512 0.033903506 0.017612386 0.04904933 -0.047842752 0.0122126825 -0.009887636 -0.037749313 -0.0047859065 0.0063489303 -0.01957444 0.032334756 0.023417953 -0.042981982 0.030314002 0.009929039 -0.003943801 0.0011879317 0.031811427 0.032840613 -0.04740615 0.0028866045 0.019410107 -0.046189416 -0.020092452 -0.043761004
contrast 0.046350446 0.02612393 -0.049594343 -0.02875173 0.02301756 0.0039814934 -0.020196652 0.036652293 0.047330562 -0.023189962 -0.04356892 0.014905844 0.0043394677 0.010861553 -0.0052933097 0.0052213892 0.029410843 -0.009837352 -0.035195958 0.026418332 -0.012783837 -0.006340526 -0.048858583 -0.019696772 0.039860774 -0.015539575 0.041630004 -0.00830815 0.046278026 -0.002061855 -0.021931922 0.044713747 -0.041053534 -0.028179122 0.017333258 0.04191276 0.020506334 -0.013758671 0.03294653 -0.045950163 0.009583462 0.011701714 0.0373728 -0.007333778 -0.04493295 -0.018807186 0.026705254 0.02779248 -0.04252546 -0.020211352 0.04334083 -0.049127042 -0.037032794 0.037468735 0.028527502 -0.042768266 0.008181501 -0.010701906 -0.019553995 0.033960346 0.04838327 -0.02440511 0.038015354 0.024259198 0.010416616 0.0055877455 -0.01129799 0.04195447 -0.011117268 -0.013463102 -0.017906368 -0.038334716 -0.034277402 -0.009014107 0.001432728 -0.004742086 -0.018966569 -0.0060919896 -0.042780317 0.010630142 -0.039411973 -0.038685836 0.04344621 0.04146434 0.017042968 0.003237415 0.03822908 -0.003288854 0.033303786 -0.049325775 -0.044688668 -0.0006708726 0.015623298 0.02718914 -0.04493084 0.013614919 -0.005277276 -0.04289509 0.037010062 -0.005501032
we 0.012066506 -0.028023196 -0.041353177 0.001957547 0.04239789 -0.038098644 -0.0016801953 -0.003335882 -0.018590607 0.039603878 -0.01130712 -0.0019440055 0.038576517 0.0032418147 0.000642322 0.014163222 0.017245982 -0.02317599 -0.04093802 -0.012818076 0.023211513 0.023473863 0.003676068 0.03446361 -0.002799105 -0.045962572 -0.008157633 0.02627987 -0.0046066158 0.036225867 -0.015980147 0.0032017604 -0.028139591 -0.04507352 -0.04694829 -0.01978525 0.02215017 0.0055530444 0.00010167435 -0.009423424 -0.04205104 -0.024585128 -0.023629045 0.047454026 0.00495857 -0.030812824 0.04942279 -0.048203733 -0.029948581 0.0015240908 -0.03260206 0.0041783936 0.012705509 0.027548824 -0.0015840419 -0.011071861 -0.00916598 0.038774636 0.022881757 0.014205251 0.04496732 0.03261243 -0.0009862892 0.034189943 0.016041163 -0.022584606 -0.03225895 0.011276018 -0.005697608 -0.026529288 0.011852741 0.024390113 -0.008063149 -0.03660214 -0.0069965944 -0.027324533 0.032126974 -0.018464066 -0.036362052 0.02766255 -0.008199371 -0.024070894 0.013342407 0.0053634867 0.00884857 0.008858871 0.017524187 0.032599177 0.03771079 -0.008903109 0.01584537 5.1427633e-05 0.004222203 -0.04081712 0.012732517 0.0405784 -0.04442185 -0.021916091 0.046343196 -0.016316555
learning 0.00293101 0.047592472 0.0450281 -0.026189923 -0.025526643 0.009264052 0.015163865 0.019015621 -0.03912183 -0.015582491 0.022910047 0.03926528 0.038346615 0.02036855 -0.043636896 -0.02915815 0.037860703 -0.0049280897 0.04145335 -0.015969776 -0.019550456 -0.0298185 0.016847018 0.015999768 0.00047596544 -0.022737635 -0.025909305 0.020392705 -0.007954668 0.04301435 -0.007872522 -0.04549649 0.03069191 0.0011259317 0.012432374 0.016066503 0.0369259 0.009207822 -0.015537679 -0.0057782754 -7.717684e-05 -0.019763185 -0.024949228 -0.049257625 0.023741987 0.0034877434 0.01257566 -0.047608566 0.041976478 -0.04919509 0.01660693 -0.04661615 -0.047293972 -0.049956214 0.0043023936 -0.042984962 0.02870481 0.026084434 -0.031052006 0.042814884 -0.03810494 -0.022054339 0.03194702 0.015479755 0.013493132 0.02820656 0.01313566 -0.048669647 -0.040082525 -0.042489626 -0.035940766 0.008209299 -0.0375844 0.0026886463 -0.022314383 0.029652003 -0.04587934 -0.025452936 0.0014300719 -0.019794524 -0.040219415 -0.00086345524 0.010962091 -0.042598534 0.02050512 0.000492014 -0.004023351 0.011496972 0.010381866 0.025156368 0.005442273 0.04938272 0.011169981 -0.0019822717 -0.045580484 0.011110343 0.03473692 0.033954095 -0.038928233 -0.00373175
there 0.04916742 0.022290472 0.01780403 0.031365905 0.007331025 -0.038205814 0.018324267 -0.0042548403 0.018093657 0.0001370199 0.0082580075 -0.0031583086 -0.019350816 -0.023657262 0.0014882088 0.042113934 -0.0120613575 0.011303376 -0.030653978 0.0016639121 -0.028838767 -0.0365646 0.021577228 0.01809812 0.049518887 0.013792459 -0.034459494 0.020524386 -0.045886423 -0.017497014 -0.043695904 0.009111904 -0.04691547 0.025358532 -0.04636116 -0.03530637 0.028050255 0.035207894 0.019572344 -0.0008979812 0.041205656 -0.024684334 -0.035883676 0.027612735 0.044875655 -0.013657261 -0.032549523 0.008755289 0.018881787 0.03360084 -0.028524483 -0.026288664 -0.04408157 0.014499199 0.0014987588 0.0019266978 -0.0018111691 -0.007707704 -0.048208214 -0.0013257377 -0.032860078 -0.049617648 -0.0080902465 -0.03897209 -0.040078484 0.018145945 0.00049047545 -0.011349916 0.03355323 -0.040683735 0.029677246 -0.0031639114 -0.016051255 0.008055367 -0.01688864 0.037396993 0.041025344 -0.016628254 0.0479406 0.0034327134 -0.045715045 -0.017529607 0.023669254 0.02527285 0.015472401 0.0020835996 0.036638346 -0.01005559 -0.048444893 0.049912665 0.04385451 -0.016295038 -0.046747565 0.026088212 0.04878961 0.03424832 -0.01951629 0.0038277023 0.040419284 0.047219027
people -0.0007108934 -0.032798804 0.048898105 0.008907519 0.047417987 0.04713941 -0.0037326328 -0.043309964 0.0021891817 0.03199215 0.015500974 -0.021526814 0.041682545 0.01821779 -0.030586792 -0.039125778 -0.033271242 0.036520366 0.03605107 -0.02922343 -0.044743147 0.033625092 0.01881199 -0.04870775 -0.023593033 0.026757922 0.03672227 0.039514985 0.048791256 -0.014229786 0.009221543 0.030724969 0.03267652 0.025250647 -0.031213427 0.043805864 0.015276704 -0.041361608 -0.035199083 0.026903953 -0.01495849 -0.0053454414 0.021534387 0.049396228 0.004838586 -0.04663067 -0.03175155 0.04500607 0.013617251 -0.035955727 -0.02937813 0.028569195 0.032344703 0.008914314 0.01792283 -0.03495865 -0.022792662 -0.042584658 -0.037588965 -0.032833435 0.018406142 0.027786825 -0.033002436 -0.027985824 -0.024414254 -0.0004522428 -0.04847907 0.017027985 0.027721453 -0.04099666 0.024610046 0.00934235 -0.033269905 -0.023883462 0.01497158 -0.034377657 -0.0177693 -0.013784684 0.043599393 -0.0032382496 -0.0345348 -0.02939874 -0.038828563 -0.0057716966 0.04010718 -0.005836237 0.046914805 0.03357127 -0.014349043 -0.010141123 0.038767528 0.01281276 0.015858185 0.04475708 -0.00014506653 -0.005786348 -0.0018521547 0.027703617 0.039994095 -0.0075284466
who -0.024759604 -0.005196668 0.0082371235 0.020271603 0.02583183 -0.02758099 0.04599222 0.01743884 0.043914806 -0.0053243265 0.034130428 -0.0022677295 -0.031892695 0.014570925 0.043193493 0.024896275 0.030477475 0.016688827 0.020956863 -0.044631958 -0.024100054 -0.020276893 0.01859114 0.01934326 0.015276682 0.0073123686 0.04657695 0.019734386 0.03337154 -0.012657858 -0.004386712 -0.045312095 -0.0293473 0.012509894 -0.0017309561 0.030870881 0.006645061 0.048308875 0.025184166 0.027801547 0.010199357 0.0070271604 0.025206748 -0.016854726 0.02894533 0.03519355 -0.013278771 -0.040883135 -0.0037511215 0.044993114 -0.034166478 0.03123093 -0.04623996 0.041579995 0.0090441 0.008827768 0.024556253 -0.004542947 0.02814399 -0.016166508 -0.008637536 0.030356314 -0.013228834 0.030915488 0.02182727 0.010096632 -0.008152105 0.031056073 -0.018721152 0.030765142 -0.042612996 0.022460256 0.017962959 -0.043622613 0.032657217 -0.025752438 -0.013677776 -0.04193026 0.040119853 -0.0047386885 -0.032537423 0.025963668 -0.008885346 0.03857411 -0.045607746 0.046026576 -0.016780972 -0.045942605 -0.023921251 0.045072112 0.040065315 0.009386014 0.038098563 -0.04231545 0.0024076328 -0.010536898 -0.030862106 -0.036100507 -0.029648531 0.0349457
shed 0.03856175 -0.004918266 0.022693727 0.015312921 0.0057407394 -0.04800346 0.012157857 -0.008974634 0.013490807 -0.014829956 0.017469477 -0.020737445 0.004981637 0.0020317063 -0.04537311 0.010446869 -0.039624978 -0.015008915 0.020768072 0.03729972 -0.031801462 -0.031476155 -0.033641495 0.0060419217 0.010437559 -0.03263688 -0.035274826 -0.040357936 -0.046513487 -0.013869524 0.021344949 -0.014142834 0.030994963 0.04815909 0.028069448 -0.0007407442 -0.005663894 0.028396916 -0.039716076 -0.020546187 -0.027917504 0.013026919 0.02093545 -0.01197933 -1.3053417e-05 -0.044123065 -0.016507722 -0.02288015 -0.044626962 0.035996985 0.0213339 -0.005712904 0.033042695 0.045597162 0.049927007 -0.029542064 -0.045615017 -0.020750655 0.041150164 -0.00041502714 0.049970333 0.024385978 -0.01540301 -0.017912827 -0.022553159 -0.046683993 0.0124895945 -0.041081406 -0.030459834 0.020727802 -0.043803908 -0.034646533 -0.028078591 0.028691914 0.008220267 -0.043693732 0.03995956 0.013417516 -0.047493387 0.029217485 0.009268153 0.011192691 -0.00412352 -0.001998663 -0.017225634 0.030717243 0.03218471 -0.020717157 0.01785094 0.031228412 -0.04219837 -0.034208335 -0.04566287 -0.00032123178 0.0039033405 -0.006827127 0.019364905 -0.013089575 0.00043477863 0.010754146
24 -0.027815355 -0.018503893 0.01797862 -0.013062645 0.025787387 -0.041980803 -0.040550552 0.03385285 0.04425769 -0.026349986 0.038991224 0.023119759 0.023781825 0.042887043 0.04985371 0.034314368 -0.02470534 -0.030696202 -0.048509765 -0.0318182 0.036579672 0.019860018 -0.049521115 -0.020654798 0.010926425 -0.030653704 -0.0027166978 -0.0052464716 -0.0464811 0.009231459 0.010682322 -0.0075327978 -0.013883114 0.022202078 0.03220321 0.015882436 -0.030811667 -0.039815497 -0.036532782 0.04955015 0.04474702 0.032106306 -0.0071578138 0.017372537 -0.043404996 -0.012963604 0.047967102 0.044705223 -0.028966034 0.0016209856 0.02771325 -0.0056226365 0.034634102 -0.03855542 -0.008189023 -0.019854307 -0.0043857098 -0.026948571 0.01880752 -0.032500803 -0.035510313 -0.048359346 -0.0241611 0.042212415 0.0037717447 -0.03989209 -0.047909725 -0.033902787 -0.0040167794 0.043773126 0.035017278 0.039659325 0.048339378 -0.03999909 0.007888664 -0.020895768 -0.015615571 0.04474094 0.032228556 -0.04073397 -9.94429e-05 0.023826335 0.04240128 0.023605231 -0.042729784 -0.021249343 -0.03835045 -0.023834502 0.002963435 0.0060338005 -0.026819337 -0.034252718 -0.028777933 0.04187243 -0.046782065 -0.011666 0.00949385 -0.01499214 0.0034995675 0.023157742
48 -0.039850153 -0.0060658343 0.047043834 -0.001128424 0.01944096 -0.04773737 0.015432786 -0.006949056 0.019228403 -0.00022736937 -0.009804953 -0.011237036 -0.047511697 0.023637835 -0.009776391 0.014638666 -0.032832492 0.01601341 -0.044833984 -0.009868849 0.026392769 -0.0078770295 -0.047556914 0.025472406 -0.022389675 0.023432564 0.020629417 -0.009352196 0.047397684 0.032544438 0.034284774 0.007144045 -0.04977597 0.031438384 0.009003639 -0.03072741 -0.005879294 -0.043173935 -0.011768781 0.037836086 0.03305732 0.00901071 0.028126765 0.044487204 0.028916273 0.020206716 -0.010538675 0.022762883 -0.036678575 0.0030885227 0.018600795 0.04877836 0.03964759 -0.026655471 -0.008946072 -0.0262357 0.03781252 -0.02698995 0.026215363 0.049924638 0.009686101 0.034951452 0.029990163 -0.021898223 -0.03327874 -0.005599726 0.0016295686 -0.007947445 -0.03727416 0.0011615381 0.011087738 -0.0031531677 -0.036254644 0.0056179054 -0.025040401 -0.038662683 0.008438241 0.033972804 -0.046201553 0.017482173 0.013302315 -0.0064154267 -0.017861225 -0.0059404485 0.022609781 0.033350457 -0.041138638 -0.016428243 -0.04198562 -0.026013756 0.032230627 0.03429446 0.036708485 0.024579767 0.04765315 -0.028756524 -0.015328359 0.043655027 -0.015150774 -0.040237926
hours -0.027089048 -0.0019355901 -0.0052861944 -0.025627553 0.013319124 0.02840035 0.033775594 -0.03397329 -0.027796282 0.02922592 0.004748009 0.018441562 0.006458234 -0.042523313 -0.03679589 -0.0337206 -0.0409817 0.034303073 0.036881458 0.010559011 0.019224536 0.01203984 -0.02902608 -7.09407e-05 -0.011701524 0.04302511 -0.03399104 0.016972315 -0.021452988 0.01897544 0.0402606 -0.023685073 -0.012935199 -0.0051223747 -0.035488665 -0.040088583 -0.034153596 -0.041100085 0.044461314 -0.023472667 0.04624183 0.0058143623 -0.023011887 -0.040155888 0.008271538 -0.04468111 0.047462966 -0.014062177 0.0046122074 0.02464452 0.038739715 5.2690506e-05 -0.040032506 -0.0013727061 0.018901777 -0.04329759 -0.04884273 -0.039955057 -0.03722148 0.02205069 0.04464488 0.013640117 0.029508617 0.028698776 -0.03496219 0.0048861876 -0.024285628 -0.03896109 -0.036440372 -0.009751964 -0.046604563 0.041701686 0.005144965 -0.0021771416 -0.03190603 -0.014288496 0.039265838 -0.027710581 -0.023827588 0.009303309 -0.047707237 -0.010038175 0.016516458 -0.0005297065 0.015990447 -0.040975533 0.019152332 -0.04965446 -0.020196725 -0.0142603405 -0.012723338 0.028556254 -0.026544869 -0.009758722 0.031929825 0.035431158 0.03730278 -0.017664682 0.043812398 -0.011268102
prior -0.011923216 -0.032368258 -0.038280047 0.03686564 0.031768892 -0.0411252 -0.04862994 -0.013277162 -0.01709982 -0.017955638 -0.029334867 -0.006652795 -0.0050411113 -0.008498322 -0.0070773736 -0.046916485 0.040633176 -0.03928702 -0.011965118 -0.034999013 0.040402878 0.020499203 -0.019035114 -0.025686825 0.032210436 -0.004204653 -0.045457747 0.02930018 -0.041136883 -0.049102783 0.038762543 0.009578966 0.0020632856 0.045558024 -0.010310221 0.0026355498 0.0018969886 -0.006099928 0.031438675 -0.015319504 -0.0027517676 0.04128218 0.031593684 0.031942714 -0.006180346 0.0046977885 -0.04043895 0.03909414 -0.030173456 0.005829882 -0.0035470836 -0.03062445 0.0034023747 -0.035073437 -0.021774625 -0.049222052 0.018753778 0.04037663 -0.044887878 0.013071608 -0.015931942 -0.001542531 0.039062034 -0.040866792 0.024309907 -0.040137768 -0.025988234 0.030539442 -0.036667563 -0.007568408 -0.041433096 -0.008300293 0.03972825 -0.028691614 -0.039878774 0.017452348 0.044189755 0.021429572 -0.01544708 -0.010135055 -0.021195054 0.032231484 0.0037809014 0.0029510036 -0.019005215 0.017319527 0.04948732 0.029056203 -0.01190703 -0.03429669 -0.011030912 -0.043412007 -0.035649706 -0.0066748634 0.039722692 -0.0015062317 -0.017590068 -0.0026756749 0.04875486 0.031378422
symptom -0.026020039 -0.021598315 -0.0034944043 0.018208552 -0.029257644 0.043909047 -0.006071843 -0.02952764 -0.013637066 0.03133061 0.021908019 0.015448991 -0.047965955 -0.013491273 0.047070492 -0.030501558 -0.035181522 0.0074790493 -0.017597865 0.032635305 -0.03532622 0.031279016 0.028865006 0.049009506 0.036050443 0.029655408 0.046469476 0.008206379 0.047376107 -0.018293 0.010426126 0.03816111 0.037922766 -0.043549564 -0.00064474344 0.041758742 -0.02413094 -0.00575912 -0.044037856 0.0017775893 -0.020377373 0.011784386 0.015822504 0.0053409934 0.017268848 -0.01828029 -0.046509244 -0.021829916 0.020971145 -0.0070883855 -0.030003859 -0.037669696 -0.016481318 0.0022930726 -0.0011391416 0.018672142 0.007980954 -0.028222455 0.014007036 -0.0006053671 0.0071044676 0.032544818 0.03695928 -0.0239635 -0.008028854 0.008205034 -0.03317245 -0.034985125 0.049249794 0.014717769 0.041750286 -0.041176975 -0.03588288 0.023115244 -0.025974954 -0.0144176595 0.041229162 -0.0034928545 -0.0326674 -0.048676383 -0.012949012 0.023844186 -0.04646654 0.005995214 0.012322746 -0.0070594326 0.037198175 -0.004123807 -0.033827446 0.035122957 0.014484491 -0.026148224 -0.005554773 -0.02469387 -0.034650944 0.02829868 0.045068096 -0.04314653 0.040263083 0.024552215
onset 0.011305857 0.010063898 -0.0018551573 0.004118789 -0.018682957 0.021822784 0.015105512 0.018085692 0.0070077404 0.028363679 0.042058174 -0.046733797 -0.008779835 0.016951669 -0.004005123 -0.04742805 -0.017319143 0.023334038 -0.040304102 -0.02373395 0.018594597 -0.03032167 -0.027275955 0.033217203 -0.0498016 0.037738 -0.036595892 0.025701176 0.01912639 -0.011830438 0.0148364045 0.04807103 -0.0061746463 -0.01664121 -0.03440802 -0.039353263 -0.017065238 -0.014102161 0.030795444 -0.009976018 -0.02878021 -0.042390704 -0.00411091 0.021675322 -0.010778904 -0.03787179 0.003883399 0.021337237 0.037788633 -0.031794228 -0.0007484928 -0.008914731 -0.0010664687 -0.024829626 0.0048522353 0.017643128 -0.0025086887 0.026498858 0.026474964 -0.012111805 -0.028182626 0.03350644 0.0036396012 -0.004281543 0.028321449 -0.003942717 0.009323668 -0.020808553 -0.0020593628 -0.032304443 -0.049400043 -0.007940769 -0.025989855 -0.029793715 -0.022849286 -0.046653774 0.017972264 0.009452999 0.0016897693 0.03967886 0.021217074 0.042089645 0.036951337 -0.045145012 0.032864835 0.016175259 -0.016731918 0.017308835 -0.04880872 -0.04334407 -0.0034291036 0.028744433 -0.03402938 0.04468676 -0.019312728 -0.0068813674 0.020849619 0.02826145 0.020357575 0.033829477
at -0.034294784 -0.048442997 -0.023024881 -0.018891716 0.020908501 0.016205993 -0.021316027 -0.0009631291 0.027587485 -0.015378438 -0.033017315 0.049468864 -0.029312039 0.04025883 0.00974654 0.030429255 0.023053396 -0.03868451 0.0160915 1.08368695e-05 0.03462467 0.025909279 0.044453193 0.0046936646 -0.033762 -0.033938505 -0.03583814 -0.0005120523 0.0189245 -0.03932973 -4.3846667e-05 0.030706022 0.01996136 0.019106451 0.039006952 0.03986666 -0.03097192 0.046519745 -0.007694602 0.030761268 0.006078113 -0.049282458 0.009069275 0.029170755 0.003932297 0.032517683 0.015662994 0.028393794 0.019278158 0.024482999 -0.03255669 0.02441385 0.04342476 -0.04109912 0.016810562 -0.04533868 0.006830372 0.024288762 0.016012702 0.048334528 0.0137996785 0.047604058 -0.02427727 -0.009565461 -0.028695524 0.01656622 -0.0148255825 0.043561425 -0.012089264 -0.0043650493 -0.032482997 -0.024926627 0.03241228 0.018241946 -0.0060933456 -0.017571807 0.04986688 -0.049753394 0.043434534 -0.040374923 -0.0027689822 0.036496174 -0.006140411 -0.006478749 -0.00031951815 -0.011936642 0.037037406 0.015312124 0.029313099 0.007797383 0.026905645 -0.030948197 0.0425432 -0.04583739 -0.029839277 0.037456904 0.015330162 -0.035107087 -0.010138772 0.013618354
present 0.030676428 0.017140057 -0.012864519 0.049711738 -0.024620546 -0.039242305 -0.01371634 0.03195593 0.040854584 -0.025111377 0.029300813 -0.035212897 -0.012507629 0.046428356 0.037282232 -0.028308153 0.044800673 -0.029413164 -0.008782327 0.020542096 0.045803536 -0.023523761 0.032015752 0.026045028 0.02002218 0.017678145 -0.03411851 0.015459385 -0.022244096 0.013938021 -0.036690496 -0.018047571 -0.036559425 -0.020965029 -0.044379737 -0.026641846 0.046758223 0.045856763 -0.03889036 -0.0039386377 -0.012256466 -0.035996903 -0.006645106 -0.008296002 -0.021321405 -0.04466758 0.031257246 -0.024220824 0.018856775 0.03262789 0.031168554 -0.008360527 0.03942314 -0.04872291 -0.0040264726 -0.004821241 0.011192523 -0.0007150993 -0.027370144 0.045775663 -0.0023068674 0.03777125 0.0016652942 0.048903476 -0.04647572 -0.018363453 -0.04583292 0.010335982 0.0462392 -0.022310197 0.026762772 0.032589342 0.044081476 0.032440547 -0.03557693 -0.016455151 0.025986064 -0.048204996 -0.023860538 0.015039075 0.01985817 0.025484446 -0.025572503 -0.029705787 -0.04813377 -0.036320113 -0.018147267 0.04149035 0.019605804 0.03926975 0.0100419745 -0.0012606867 -0.045632936 -0.03347391 -0.03122282 0.0101438165 0.007249117 0.019497659 0.033933986 -0.012089454
does 0.008854963 0.03315827 0.0025843382 -0.00964563 -0.04320675 -0.0081502795 -0.0028180964 0.004183661 -0.012962438 -0.027722681 0.0380441 0.036876176 0.04695377 0.0021115057 -0.024197722 -0.043732535 -0.033107124 -0.04172796 -0.0071410425 0.00070368126 -0.025256325 0.04733238 0.018344317 0.02881794 -0.042115413 -0.0047192946 0.028008115 0.03913155 -0.015372824 -0.026676476 0.04643588 0.0018547662 -0.043083943 0.0065932646 0.035404075 -0.011075366 0.013725076 -0.005357899 0.039006066 -0.036587786 -0.040825795 0.0022792108 0.033230614 0.007900108 -0.012781132 0.03356478 0.030696694 0.022152904 -0.019180238 -0.008928776 0.007583402 -0.047232926 -0.009433247 -0.015763234 0.033524957 -0.024196519 0.0055186376 -0.049279273 -0.03618108 0.028687928 -0.0127642155 -0.015063308 -0.040099047 -0.033332407 0.016158294 -0.012365054 -0.041127335 -0.018924654 -0.040205885 -0.04232948 -0.02754799 -0.047244754 0.03230465 -0.046420313 -0.025221348 0.017174099 -0.020891214 -0.03448733 0.029918563 -0.016420722 0.045840535 0.027286503 -0.0077337623 -0.04900552 0.00058122724 0.018503 0.046040487 -0.040829636 0.009635817 -0.013615824 0.00947658 -0.012416888 -0.019347047 0.034036126 0.03127638 0.028404262 -0.0017135963 -0.009834312 0.007006347 -0.026795471
